
\data\
ngram 1=34
ngram 2=661
ngram 3=4149
ngram 4=4609
ngram 5=5873
ngram 6=6170
ngram 7=7768
ngram 8=7748
ngram 9=8202
ngram 10=7702
ngram 11=7953
ngram 12=8026

\1-grams:
-2.714134	!	-5.429023
-2.119099	'	-99
-2.151696	,	-5.440993
-1.713388	.	-2.360622
-1.721878	</s>
-99	<s>	-99
-0.7781497	<sp>	-99
-2.288453	?	-5.43048
-1.235076	a	-2.339417
-1.926593	b	-1.109791
-1.716213	c	-1.798171
-1.571893	d	-99
-1.039007	e	-99
-1.855615	f	-1.917891
-1.771231	g	-1.840214
-1.394386	h	-2.105892
-1.239179	i	-2.477739
-2.770491	j	-1.289309
-2.051741	k	-1.436141
-1.491623	l	-2.356188
-1.703993	m	-1.928566
-1.298321	n	-99
-1.175679	o	-2.846518
-1.851759	p	-99
-3.145273	q	-1.30279
-1.380271	r	-0.6314775
-1.317463	s	-99
-1.12092	t	-2.166452
-1.578115	u	-99
-2.085682	v	-99
-1.730659	w	-1.753338
-2.822092	x	-1.031579
-1.660874	y	-1.826112
-3.31744	z	-0.6645628

\2-grams:
-0.1444635	! </s>
-0.5482622	! <sp>
-3.745687	' ,
-5.303324	' .
-2.36009	' <sp>
-2.740802	' a
-3.714854	' b
-3.224611	' c
-1.521789	' d
-3.036053	' e
-4.093359	' f
-4.212146	' g
-4.020585	' h
-3.401674	' i
-4.765609	' j
-4.291709	' k
-1.144168	' l
-0.937896	' m
-3.497071	' n
-3.787983	' o
-3.958238	' p
-5.205606	' q
-1.15395	' r	-2.552888
-0.4704501	' s	-1.772474
-0.5060706	' t	-2.101705
-4.248989	' u
-1.278147	' v
-3.962339	' w
-5.263452	' x
-4.315579	' y
-4.873446	' z
-1.311023e-06	, <sp>	-99
-0.1399401	. </s>
-0.5652738	. <sp>	-99
-3.836161	. t	-99
-1.155838	<s> a	-0.288918
-1.438933	<s> b	0.02207332
-1.607183	<s> c	-0.005916153
-1.477122	<s> d	-0.7571369
-1.919748	<s> e	-0.4706455
-1.861352	<s> f	-0.1160757
-1.845477	<s> g	-0.5460414
-1.268202	<s> h	-0.1719703
-0.6301206	<s> i	-0.4089778
-2.046084	<s> j
-2.617409	<s> k	-0.1215522
-1.746424	<s> l	-0.04139665
-1.567249	<s> m	-0.3593543
-1.465672	<s> n	-0.8101691
-1.504933	<s> o	-0.2066467
-1.764598	<s> p	0.01370974
-3.051979	<s> q
-2.036262	<s> r	-0.2432222
-1.265885	<s> s	-0.8116776
-0.8790461	<s> t	-1.261463
-2.2295	<s> u	-0.06444664
-2.590209	<s> v	0.243144
-0.980146	<s> w	-0.6188875
-3.84924	<s> x
-1.233781	<s> y	-2.205055
-3.739047	<s> z
-3.88681	<sp> '
-6.822894	<sp> .
-1.016411	<sp> a	-99
-1.369336	<sp> b	-0.3039704
-1.348935	<sp> c	-99
-1.398965	<sp> d	-1.328099
-1.706598	<sp> e	-0.5824443
-1.435892	<sp> f	-99
-1.596027	<sp> g	-99
-1.373636	<sp> h	-99
-1.041318	<sp> i	-99
-2.121274	<sp> j	0.01283029
-2.040148	<sp> k	-1.242752
-1.56004	<sp> l	-99
-1.351362	<sp> m	-99
-1.552052	<sp> n	-1.278869
-1.322257	<sp> o	-99
-1.50141	<sp> p	-0.394143
-2.599298	<sp> q	-0.2979615
-1.634042	<sp> r	-1.663583
-1.194629	<sp> s	-1.085406
-0.8236505	<sp> t	-99
-1.901322	<sp> u	-0.4251622
-2.211618	<sp> v	0.1911317
-1.179651	<sp> w	-99
-3.550609	<sp> x
-1.394972	<sp> y	-99
-3.570769	<sp> z
-0.1335732	? </s>
-0.5771461	? <sp>	-0.007195771
-3.272633	a !
-3.351199	a '
-2.853668	a ,
-2.416322	a .
-1.107532	a <sp>	-99
-3.012285	a ?
-1.577611	a b	-0.4876153
-1.433737	a c	-0.5081914
-1.474791	a d	-0.1312949
-2.234737	a f
-1.722149	a g	-0.1056149
-2.320217	a h
-1.557673	a i	-0.3712181
-3.258738	a j
-1.699112	a k	-0.701632
-1.051455	a l	-99
-1.54593	a m	-99
-0.7513247	a n	-0.5270922
-1.711646	a p	-0.370548
-3.815103	a q
-1.026144	a r	-0.1600207
-1.142705	a s	-0.2335265
-0.8022977	a t	-99
-1.968127	a u	-0.217052
-1.401195	a v	-0.2094667
-2.26877	a w
-2.916882	a x
-1.372911	a y	-99
-2.771336	a z
-1.033105	b a	-0.1285853
-2.311995	b b	-0.07877351
-0.4828439	b e	-0.223716
-1.31467	b i	0.02647278
-2.210106	b j	-1.460851
-0.9612375	b l	-99
-3.504136	b n	-0.1182039
-0.8786818	b o	-99
-1.347505	b r	-0.09368499
-1.828471	b s	-0.07767425
-2.364214	b t	-99
-0.8348716	b u	-0.8527843
-1.464363	b y	-0.5234574
-3.306189	c !
-2.824671	c ,
-2.207822	c .
-1.752941	c <sp>	-0.000225285
-2.937162	c ?
-0.750065	c a	-99
-1.839155	c c	-0.3177915
-0.8893759	c e	-0.2326121
-0.8533706	c h	0.00566633
-1.372929	c i	-0.2443784
-1.167535	c k	-0.1054479
-1.432256	c l	-99
-0.7115592	c o	-99
-3.489036	c q
-1.482538	c r	-0.4897654
-2.256178	c s
-1.051403	c t	-99
-1.481286	c u	-0.2241126
-2.226869	c y
-2.353701	d !
-2.849189	d '
-1.833463	d ,
-1.292657	d .	0
-0.3928863	d <sp>	-99
-1.956493	d ?
-1.320213	d a	-0.4535374
-2.809926	d b
-3.180007	d c
-1.943422	d d	0.08239883
-0.935425	d e	-0.1783772
-3.049146	d f
-2.456137	d g	-0.8865818
-3.432492	d h
-1.059469	d i	-99
-3.313027	d j
-3.811811	d k
-2.210541	d l	-0.1291733
-2.688684	d m	-0.3568134
-1.773548	d n
-0.8550328	d o	-99
-3.301145	d p
-4.217054	d q
-1.742944	d r	0.006860632
-1.612065	d s	-0.2733384
-3.299675	d t	0
-1.881354	d u
-2.439684	d v	0.4124612
-2.944466	d w
-4.374857	d x
-1.783164	d y	-0.2294697
-4.664339	d z
-2.426744	e !
-2.055542	e '
-1.940916	e ,	0.01745902
-1.403078	e .	-99
-0.4873347	e <sp>	-0.06593283
-1.989828	e ?
-1.271538	e a	-99
-2.668019	e b
-1.644046	e c	-99
-1.299294	e d	-0.4010729
-1.471472	e e	-0.2234915
-2.075692	e f	-0.04121664
-2.396967	e g	-0.3286994
-2.908127	e h
-2.19056	e i	0.003144859
-3.895033	e j
-2.723073	e k	0.04474707
-1.453428	e l	-99
-1.700553	e m	-99
-1.164846	e n	-0.4441501
-2.23078	e o	-0.3362215
-2.059964	e p	-0.01505728
-2.716118	e q	-0.6787003
-0.9263455	e r	-0.3062454
-1.170712	e s	-0.1538298
-1.424135	e t	-99
-3.229597	e u
-1.749088	e v	-0.3412315
-2.119931	e w
-1.912405	e x	-0.2149698
-1.85298	e y	-0.2658406
-3.602208	e z
-2.989475	f !
-2.549053	f ,
-1.884664	f .
-0.5835442	f <sp>	-0.06963846
-2.561723	f ?
-1.248751	f a	-0.1156627
-1.050023	f e	-0.1112655
-1.245347	f f	-0.3231442
-0.9109626	f i	-0.4149454
-1.789665	f l	-0.08418492
-0.6522201	f o	-99
-1.154744	f r	-0.6319762
-1.534314	f t	-99
-1.323794	f u	-0.616718
-2.308222	f y	-0.2153292
-2.286191	g !
-2.990793	g '
-1.89685	g ,
-1.302682	g .	-99
-0.5213372	g <sp>	-0.08916031
-1.81681	g ?
-1.419254	g a	-0.008927943
-0.8471034	g e	-0.3534649
-1.961728	g g	-0.03598456
-0.9829524	g h	-99
-1.327437	g i	-0.1928572
-1.823457	g l	-99
-2.899456	g m
-1.836287	g n	-0.07567932
-0.9058714	g o	-99
-1.278548	g r	-0.9916731
-1.629505	g s
-2.77193	g t	-99
-1.476723	g u	-0.3214208
-2.355472	g y
-2.814964	h !
-1.964568	h ,	0.03002828
-1.925188	h .
-1.158407	h <sp>	-0.07481405
-2.497958	h ?
-0.6407476	h a	-99
-3.317689	h b
-3.089333	h d	-0.4722513
-0.4287974	h e	-0.5196452
-0.8585647	h i	-99
-3.042014	h l	-0.2242449
-2.863115	h m
-2.683472	h n	-0.1997058
-1.025265	h o	-99
-2.078425	h r	-0.2174425
-2.870892	h s
-1.499474	h t	-99
-2.123202	h u
-1.881087	h y	-0.5051935
-3.78894	i !
-1.557315	i '
-3.140355	i ,
-2.970795	i .
-1.007829	i <sp>	-99
-3.420913	i ?
-1.901801	i a	-0.1853051
-2.170244	i b	-0.3169194
-1.364395	i c	-0.4088783
-1.460977	i d	-0.1106189
-1.574252	i e	-0.2793913
-1.534557	i f	-99
-1.538245	i g	-99
-3.983845	i j
-1.812579	i k	-1.447152
-1.361408	i l	-99
-1.531786	i m	-0.2328465
-0.6279107	i n	-0.5332301
-1.355755	i o	-99
-2.170312	i p	0.05556763
-3.192953	i q
-1.647448	i r	-0.1892062
-0.8887073	i s	-0.333811
-0.8640184	i t	-99
-3.371952	i u
-1.731631	i v	-0.06429432
-2.60306	i x
-2.408912	i z
-1.086153	j a	-0.04549314
-0.9380094	j e	0.01067642
-0.7192844	j o	-0.2281626
-0.2419267	j u	-0.9614469
-2.191525	k !
-2.929863	k '
-1.699537	k ,
-1.276744	k .
-0.5770164	k <sp>	-0.01355531
-1.817252	k ?
-1.665119	k a	-0.02944112
-0.5450773	k e	-0.2383755
-2.604788	k f	-0.3882607
-2.739748	k g
-0.91776	k i	-0.5277085
-2.226876	k l	-0.2797239
-0.9857199	k n	-1.210335
-2.973255	k r	0.01575663
-1.117021	k s
-2.853011	k t	-99
-2.567611	k u
-2.132317	k y
-2.714621	l !
-3.284651	l '
-1.890402	l ,
-1.680521	l .	0
-0.8446759	l <sp>	0.0004197948
-2.375407	l ?
-1.177252	l a	-0.330129
-3.1543	l b
-2.650977	l c
-1.19769	l d	-0.412182
-0.8221449	l e	-0.1318004
-2.101474	l f
-3.266597	l g	-0.1628054
-0.9762488	l i	-99
-2.042271	l k	-0.1062187
-0.7674197	l l	-99
-2.523998	l m
-1.109693	l o	-99
-2.026337	l p	0
-2.360294	l r	-1.19858
-1.631185	l s	-0.171705
-1.910767	l t	0.06139516
-1.762534	l u	-0.2084044
-2.429987	l v
-2.283295	l w	-1.895083
-1.084377	l y	-0.9048828
-2.7086	m !
-3.165588	m '
-2.136609	m ,
-1.5995	m .	0
-0.879642	m <sp>	-99
-2.132288	m ?
-0.8334687	m a	-99
-1.752472	m b	0.02121725
-0.529529	m e	-0.04799817
-2.892464	m f	-0.6322172
-1.15584	m i	-0.4069097
-2.630397	m l
-1.664077	m m	0.01299985
-2.656073	m n
-1.020342	m o	-99
-1.289776	m p	-0.3306766
-2.494581	m r
-1.731344	m s	-0.2162905
-3.320289	m t	0
-1.465865	m u	-0.538613
-1.198659	m y	-0.8408546
-2.579438	n !
-1.325126	n '	-1.497888
-2.039224	n ,
-1.578984	n .	-99
-0.7479198	n <sp>	-0.04388511
-2.154668	n ?
-1.621476	n a	-0.2683357
-3.463111	n b
-1.583634	n c	-99
-0.9639975	n d	-0.3121905
-1.048762	n e	0.1170191
-2.180214	n f	-0.3112847
-0.8409796	n g	-0.3373668
-3.370359	n h	0.00172904
-1.543921	n i	-0.2574927
-2.87384	n j	-0.5618739
-1.559779	n k	0.02621943
-2.0425	n l	-99
-2.950374	n m
-1.98275	n n	-0.1295561
-1.037542	n o	-99
-3.139821	n p	-0.26346
-3.76907	n q
-3.319093	n r
-1.44264	n s	-0.02731297
-1.056756	n t	-99
-2.198013	n u	-0.02034128
-2.402427	n v
-3.642737	n w
-3.881402	n x
-1.628705	n y	-0.3861848
-3.989423	n z
-2.975127	o !
-3.212748	o '	0.02733373
-2.201417	o ,	0.02915811
-2.056922	o .
-0.8613073	o <sp>	-99
-2.65614	o ?
-2.338863	o a
-1.995034	o b	-0.03799153
-2.079523	o c	-0.04841453
-1.664842	o d	-0.1326635
-2.069306	o e	-1.028871
-1.364103	o f	-1.310323
-2.180622	o g	-0.1514267
-2.378814	o h	-0.0528668
-1.869032	o i	-0.8496217
-3.186438	o j
-1.814927	o k	-0.06581511
-1.663617	o l	-99
-1.289211	o m	-99
-0.8617063	o n	-0.3825635
-1.429536	o o	-99
-1.68673	o p	-0.1982346
-0.9695919	o r	-0.2801264
-1.680752	o s	-0.7316258
-1.267984	o t	-99
-0.7314494	o u	-0.5046256
-1.841079	o v	-0.5924469
-1.282011	o w	-99
-2.966136	o x
-2.562077	o y	0.04371905
-3.595346	o z
-2.53229	p !
-3.433336	p '
-2.23846	p ,
-1.667233	p .
-1.105795	p <sp>	-0.02231641
-2.272098	p ?
-1.003647	p a	-0.1277177
-3.362246	p b
-2.822277	p c
-2.305794	p d	-0.6615604
-0.7642315	p e	-0.4876304
-2.789244	p f
-3.013653	p g
-1.680138	p h	-0.05222644
-1.333732	p i	-0.1088691
-4.359089	p j
-3.49141	p k
-0.8685166	p l	-99
-2.673648	p m
-3.489748	p n
-0.9763445	p o	-99
-1.170929	p p	-0.1402537
-4.622591	p q
-0.8745372	p r	-1.965697
-1.699648	p s
-1.545657	p t	-99
-1.476757	p u	-0.1991169
-4.214233	p v
-3.665097	p w
-4.390331	p x
-1.966378	p y	-0.2124919
-4.932981	p z
-2.727608	q t	-99
-0.02071808	q u	-0.7483436
-1.555573	r .	-0.00169975
-0.7203506	r <sp>	-0.04123684
-1.266976	r a	-0.006130491
-2.103118	r c	-0.01572923
-1.653812	r d	0.009341815
-0.5476131	r e	-0.3619685
-2.384491	r f	-0.1087703
-2.071946	r g	-0.2993448
-1.127355	r i	-0.06317345
-1.752395	r k	-0.07750046
-2.028863	r l	-0.1174817
-1.886306	r m	0.1018966
-1.831854	r n	-0.111352
-1.124114	r o	-99
-1.681664	r r	-0.3291487
-1.330419	r s	-0.07823569
-1.422649	r t	0.02399282
-1.838736	r u	0.03075205
-2.21109	r v	-0.1561219
-2.604823	r w	-0.315269
-1.369835	r y	-0.2868189
-2.293579	s !
-3.398557	s '
-1.704595	s ,	0.01932067
-1.257921	s .	-99
-0.4642231	s <sp>	-0.1652631
-1.880665	s ?
-1.555355	s a	-0.1727304
-3.13295	s b	-0.4195127
-1.907422	s c	0.06817282
-3.058753	s d
-0.9559274	s e	-0.04276014
-2.924377	s f	-0.07625824
-3.493223	s g
-1.393455	s h	-99
-1.310066	s i	-0.2031938
-4.509256	s j
-2.181727	s k
-2.242669	s l	-0.07320206
-2.36403	s m	-0.1674007
-2.022788	s n	-0.8739915
-1.141293	s o	-99
-1.781959	s p	-0.2910525
-3.22409	s q
-3.4623	s r
-1.418359	s s	-0.2104683
-0.8998975	s t	-99
-1.527406	s u	-0.2285401
-3.88074	s v
-2.344196	s w	-0.3994592
-4.505334	s x
-2.276386	s y
-4.876976	s z
-2.496952	t !
-1.61859	t '	-1.403197
-2.021057	t ,
-1.485121	t .	-99
-0.5717026	t <sp>	0.01065845
-1.975811	t ?	0
-1.448203	t a	-99
-3.442044	t b
-2.40151	t c	-0.7342158
-1.135245	t e	-0.2846352
-3.284157	t f
-4.03459	t g	0.01230799
-0.5562082	t h	-0.5471905
-1.174518	t i	-99
-2.13087	t l	-0.2530982
-2.817555	t m
-1.010218	t o	-99
-3.296367	t p
-1.649048	t r	-0.6149154
-1.752937	t s	-0.2580324
-1.798579	t t	-99
-1.86404	t u	-0.4241521
-3.411538	t v
-2.323325	t w	-99
-1.978184	t y	-0.2417599
-4.018526	t z
-2.715278	u !
-1.70305	u '	-0.3793179
-2.379135	u ,
-1.8768	u .
-0.7647521	u <sp>	-99
-2.283438	u ?
-1.689868	u a	-0.372145
-1.945163	u b
-1.501732	u c	-0.2691591
-1.937946	u d	-0.2888891
-1.486615	u e	-0.2579109
-2.365382	u f	-1.074245
-1.481284	u g	-0.8160838
-2.640572	u h
-1.732877	u i	-0.1038848
-4.287663	u j
-3.159144	u k
-1.042063	u l	-0.5927157
-1.664703	u m	0.0002224784
-1.159588	u n	-0.2637823
-2.9084	u o	-0.03347765
-1.416581	u p	-0.05018246
-4.415547	u q
-0.8869714	u r	-0.2142031
-0.9031523	u s	-0.4352702
-0.8788887	u t	-99
-3.769188	u u
-3.664712	u v
-4.316801	u w
-3.144521	u x
-2.115504	u y	-0.02544848
-3.307723	u z
-3.767352	v !
-3.74297	v '
-3.362206	v ,
-2.687643	v .
-2.344985	v <sp>	0.03087575
-3.351889	v ?
-1.23067	v a	-0.167751
-3.579104	v b
-3.431769	v c
-3.155186	v d
-0.1173092	v e	-0.6690602
-4.109663	v f
-3.457999	v g
-4.052146	v h
-0.8814459	v i	-99
-4.889822	v j
-4.551217	v k
-3.489806	v l
-3.224211	v m
-3.601638	v n
-1.523893	v o	-0.1698192
-3.407581	v p
-5.149899	v q
-3.459142	v r
-2.813577	v s
-3.403319	v t	-99
-3.310842	v u
-3.788848	v v
-4.232883	v w
-4.368698	v x
-2.640664	v y	-0.2021599
-4.821144	v z
-2.570385	w !
-2.872931	w '
-1.944195	w ,
-1.644856	w .
-0.8971887	w <sp>	-0.08844244
-2.237286	w ?
-0.8081334	w a	-99
-0.7691205	w e	-0.08632233
-3.12634	w f
-0.7087362	w h	-99
-0.8654918	w i	-99
-2.594333	w l	-0.2380378
-1.672196	w n
-0.9414998	w o	-99
-1.808256	w r	-0.2331175
-1.885603	w s
-3.289965	w t	-99
-2.528789	x !
-1.94102	x ,
-1.477756	x .
-0.9319567	x <sp>	-0.01023472
-2.080965	x ?
-0.9278885	x a	0
-0.9835294	x c	-0.2447579
-1.185663	x e
-1.133488	x i	-0.1719325
-0.6690502	x p	-0.5748048
-0.6837609	x t	-99
-2.125997	y !
-2.060319	y '
-1.512027	y ,	0.01277719
-1.181719	y .	-99
-0.3980993	y <sp>	-0.01259602
-1.755584	y ?
-2.558929	y a
-1.919748	y b	-0.05839331
-2.862947	y c
-1.374507	y e	-0.2261521
-1.875657	y i
-2.598316	y l
-2.360172	y m	0
-2.636711	y n
-0.4859513	y o	-99
-2.163732	y p	-0.03799677
-3.103476	y r	-0.2699676
-1.517614	y s	-0.1898448
-1.795378	y t	-99
-2.279944	y w	-0.3347952
-3.57358	y z
-0.9131632	z a	-0.1975582
-0.3871988	z e
-0.8125058	z i
-1.057799	z y
-1.225252	z z

\3-grams:
-0.009602386	n ' t	-0.007916049
-2.011004	o ' r	1.567962
-0.01150432	t ' s	-0.6314904
-0.2134145	u ' r	-99
-1.364801e-06	e , <sp>	0.00281764
-1.404878e-06	h , <sp>	-0.002322801
-1.402066e-06	o , <sp>	-0.02910398
-1.370664e-06	s , <sp>	0.002821349
-1.350167e-06	y , <sp>	0.006077449
-4.631812	e . '
-3.645416	e . ,
-0.1352036	e . </s>
-0.5768971	e . <sp>	-0.0009968261
-4.260708	e . a
-4.437774	e . b
-3.473198	e . c
-4.21777	e . d
-4.126203	e . e
-4.615685	e . f
-3.066553	e . g
-4.253819	e . h
-4.182581	e . i
-4.166294	e . j
-5.18117	e . k
-4.398333	e . l
-4.243408	e . m
-4.165204	e . n
-4.001503	e . o
-4.103114	e . p
-5.433349	e . q
-4.360521	e . r
-4.114403	e . s
-3.951055	e . t
-4.77829	e . u
-4.761452	e . v
-4.453761	e . w
-4.342834	e . x
-4.919475	e . y
-5.174378	e . z
-4.750649	g . '
-3.072901	g . ,
-0.136716	g . </s>
-0.5730475	g . <sp>
-4.133241	g . a
-4.397379	g . b
-3.551312	g . c
-4.141641	g . d
-4.015003	g . e
-4.467001	g . f
-4.408491	g . g
-4.016651	g . h
-3.985716	g . i
-4.057498	g . j
-4.971853	g . k
-4.184799	g . l
-4.164149	g . m
-4.22002	g . n
-3.883432	g . o
-3.95867	g . p
-5.607061	g . q
-4.321846	g . r
-3.872366	g . s
-3.751607	g . t
-4.640477	g . u
-4.683079	g . v
-4.428887	g . w
-4.048367	g . x
-4.695624	g . y
-5.154109	g . z
-4.64913	n . '
-4.148395	n . ,
-0.1318122	n . </s>
-0.5851934	n . <sp>
-4.22117	n . a
-4.125844	n . b
-3.367948	n . c
-4.240925	n . d
-4.118209	n . e
-4.578928	n . f
-4.493113	n . g
-4.145143	n . h
-4.027808	n . i
-4.291481	n . j
-5.013267	n . k
-4.350297	n . l
-4.337013	n . m
-4.160196	n . n
-3.882621	n . o
-4.020847	n . p
-5.292272	n . q
-4.397719	n . r
-3.956304	n . s
-4.022532	n . t
-4.750689	n . u
-4.81405	n . v
-4.530809	n . w
-4.171465	n . x
-4.649157	n . y
-4.984263	n . z
-0.5607592	r . <sp>	-0.003384877
-4.556643	s . '
-3.768734	s . ,
-0.1374891	s . </s>
-0.5696043	s . <sp>
-3.983409	s . a
-4.427818	s . b
-3.426015	s . c
-4.135481	s . d
-4.135486	s . e
-4.558652	s . f
-4.424967	s . g
-4.228854	s . h
-4.130442	s . i
-4.338387	s . j
-4.865633	s . k
-4.313731	s . l
-4.20783	s . m
-4.180235	s . n
-3.981997	s . o
-4.043148	s . p
-5.390664	s . q
-4.352474	s . r
-3.951635	s . s
-3.837173	s . t
-4.680089	s . u
-4.624591	s . v
-4.470479	s . w
-4.179304	s . x
-4.801415	s . y
-5.150718	s . z
-4.67698	t . '
-4.104926	t . ,
-0.1412303	t . </s>
-0.5594932	t . <sp>
-4.179083	t . a
-4.391324	t . b
-3.491696	t . c
-4.20017	t . d
-4.037116	t . e
-4.422133	t . f
-4.314671	t . g
-4.039241	t . h
-4.100014	t . i
-4.162115	t . j
-4.891895	t . k
-4.305377	t . l
-4.145011	t . m
-4.309309	t . n
-4.068091	t . o
-3.965005	t . p
-5.253182	t . q
-4.256632	t . r
-3.978854	t . s
-3.995659	t . t
-4.74261	t . u
-4.119238	t . v
-4.335814	t . w
-4.262175	t . x
-4.892966	t . y
-5.267317	t . z
-4.663078	y . '
-4.32346	y . ,
-0.135938	y . </s>
-0.5723109	y . <sp>	6.874208e-05
-4.429148	y . a
-4.65244	y . b
-3.588307	y . c
-4.455496	y . d
-4.281459	y . e
-4.682348	y . f
-4.770384	y . g
-4.437015	y . h
-4.367755	y . i
-4.698404	y . j
-5.227883	y . k
-4.648197	y . l
-4.5282	y . m
-4.30964	y . n
-4.295309	y . o
-4.321788	y . p
-5.795843	y . q
-4.577019	y . r
-4.313308	y . s
-4.321414	y . t
-4.867875	y . u
-5.050891	y . v
-4.676184	y . w
-4.633572	y . x
-5.003575	y . y
-4.920161	y . z
-3.760429	, <sp> '
-1.030943	, <sp> a	-0.2502557
-1.078562	, <sp> b	-0.5386217
-1.614349	, <sp> c
-1.543974	, <sp> d
-1.702896	, <sp> e
-1.778295	, <sp> f
-1.848365	, <sp> g
-1.452744	, <sp> h
-0.7513607	, <sp> i	-0.1430755
-1.897322	, <sp> j
-2.452501	, <sp> k
-1.707196	, <sp> l
-1.487465	, <sp> m	-0.1960036
-1.478893	, <sp> n	0.01361091
-1.513557	, <sp> o
-1.609244	, <sp> p	0.06862742
-3.00185	, <sp> q
-1.704575	, <sp> r
-1.250393	, <sp> s	-0.08631597
-0.8740845	, <sp> t	-0.2591826
-2.159471	, <sp> u	0.100074
-2.415308	, <sp> v	-0.08338524
-1.12474	, <sp> w
-3.650761	, <sp> x
-1.271781	, <sp> y
-3.515221	, <sp> z
-5.026419	. <sp> '
-1.148375	. <sp> a	-0.02300851
-1.383486	. <sp> b
-1.538138	. <sp> c
-1.51294	. <sp> d
-1.83168	. <sp> e
-1.778679	. <sp> f
-1.749234	. <sp> g
-1.321839	. <sp> h	-0.1228142
-0.6608341	. <sp> i
-1.989409	. <sp> j
-2.453107	. <sp> k
-1.675688	. <sp> l
-1.544119	. <sp> m	-0.03433631
-1.457881	. <sp> n
-1.552421	. <sp> o
-1.658831	. <sp> p	0.05099776
-2.969264	. <sp> q
-1.887601	. <sp> r
-1.236831	. <sp> s
-0.8571861	. <sp> t	-0.4769073
-2.190056	. <sp> u	0.07899298
-2.438968	. <sp> v
-1.04356	. <sp> w
-3.593849	. <sp> x
-1.28002	. <sp> y	-0.0467133
-3.61133	. <sp> z
-1.236276	? <sp> h	0.004597718
-3.783051	a <sp> '
-1.872497	a <sp> a
-1.093716	a <sp> b
-1.059865	a <sp> c	-0.003965789
-1.280142	a <sp> d	-0.08194626
-2.463667	a <sp> e
-1.195714	a <sp> f	-0.04054882
-1.189654	a <sp> g
-1.461419	a <sp> h	0.2381968
-1.871123	a <sp> i
-2.057082	a <sp> j
-2.139965	a <sp> k
-0.9901345	a <sp> l
-1.255016	a <sp> m
-1.446661	a <sp> n
-2.082122	a <sp> o
-1.11005	a <sp> p
-2.152383	a <sp> q
-1.353848	a <sp> r	0.0001695534
-1.001599	a <sp> s	-0.02146711
-1.254881	a <sp> t	0.04154786
-2.260765	a <sp> u
-1.669722	a <sp> v	-0.07019164
-1.291254	a <sp> w	-0.02053666
-3.74062	a <sp> x
-2.264767	a <sp> y
-3.145114	a <sp> z
-1.039072	c <sp> i	-0.1367274
-4.020824	d <sp> '
-1.043604	d <sp> a	-0.009649413
-1.213835	d <sp> b	-0.378757
-1.528249	d <sp> c
-1.61916	d <sp> d	-0.01754443
-1.732013	d <sp> e	-0.0002775803
-1.458938	d <sp> f	-0.067185
-1.767731	d <sp> g
-1.372397	d <sp> h	-0.01705308
-0.9959964	d <sp> i	-0.08613739
-2.225913	d <sp> j
-2.426444	d <sp> k	0.2038042
-1.528298	d <sp> l	-0.06618713
-1.406638	d <sp> m	-0.04020703
-1.602667	d <sp> n
-1.227319	d <sp> o	-0.2328535
-1.581133	d <sp> p	0.0008507112
-2.652444	d <sp> q
-1.712006	d <sp> r	3.144526e-05
-1.261454	d <sp> s	0.03463992
-0.717134	d <sp> t	-0.1687414
-1.846505	d <sp> u	-0.1729214
-2.281332	d <sp> v
-1.312452	d <sp> w	-0.02839356
-3.614442	d <sp> x
-1.2588	d <sp> y	-0.147848
-3.604711	d <sp> z
-0.9940921	e <sp> a	-0.05298625
-1.40136	e <sp> b	-0.05786651
-1.279275	e <sp> c	-0.01414001
-1.408453	e <sp> d	0.05819271
-1.654249	e <sp> e	0.01597722
-1.404202	e <sp> f	-0.1259644
-1.595311	e <sp> g	-0.04698936
-1.44165	e <sp> h	0.01922711
-1.112487	e <sp> i	-0.1095469
-2.114432	e <sp> k	-0.01627597
-1.591908	e <sp> l	-0.00888129
-1.356391	e <sp> m	-0.1159716
-1.55478	e <sp> n	-0.07877724
-1.263758	e <sp> o	0.01961407
-1.396412	e <sp> p	-0.03868632
-2.478268	e <sp> q	-0.05007092
-1.544698	e <sp> r	0.03860163
-1.142981	e <sp> s	0.02702125
-0.859778	e <sp> t	0.1809896
-1.880108	e <sp> u	-0.004559475
-2.137238	e <sp> v	0.04121736
-1.221437	e <sp> w	-0.007391861
-1.423872	e <sp> y	-0.1344203
-1.126049	f <sp> a	0.001983643
-1.344497	f <sp> m	-0.2002808
-0.5632308	f <sp> t	-0.5898209
-1.87854	f <sp> u	0.1162687
-1.552444	g <sp> b	0.1305099
-1.253579	g <sp> f	-0.248835
-1.051464	g <sp> i	0.002708575
-1.382807	g <sp> m	-0.03250641
-1.162241	g <sp> o	-0.198588
-1.315998	g <sp> s	0.02531823
-0.6134571	g <sp> t	-0.2796626
-1.277854	g <sp> w	-0.1595195
-0.9229735	h <sp> a	0.004790519
-1.566525	h <sp> b	0.002674394
-1.584006	h <sp> d	-0.000176983
-1.441352	h <sp> f	-0.09346063
-1.042739	h <sp> i	-0.03229167
-1.152661	h <sp> m	-0.06010372
-1.179795	h <sp> o	0.01005085
-1.74911	h <sp> r	0.06863005
-1.270638	h <sp> s	0.02567471
-0.7301698	h <sp> t	-0.197493
-3.874349	i <sp> '
-1.109526	i <sp> a
-1.755819	i <sp> b
-1.051029	i <sp> c	0
-0.9010881	i <sp> d	-0.2941815
-2.103247	i <sp> e
-1.595532	i <sp> f
-1.374646	i <sp> g
-0.977419	i <sp> h	-0.4344235
-2.221356	i <sp> i
-1.665877	i <sp> j
-1.50354	i <sp> k	-99
-1.429504	i <sp> l	-0.03596516
-1.445328	i <sp> m
-1.547557	i <sp> n
-2.194416	i <sp> o
-1.821355	i <sp> p	-0.04919203
-3.095412	i <sp> q
-1.599136	i <sp> r
-1.21774	i <sp> s	0.01937869
-1.048401	i <sp> t	-0.225835
-1.900167	i <sp> u	-0.1027864
-2.8216	i <sp> v
-0.8639174	i <sp> w	-0.00706991
-4.507179	i <sp> x
-3.293282	i <sp> y
-4.339614	i <sp> z
-1.699052	k <sp> b	-0.01918257
-1.310019	k <sp> f	-0.4940771
-0.7347763	k <sp> t	0.03992362
-1.166027	l <sp> a	-0.007501143
-1.074157	l <sp> b	-0.3797069
-1.39887	l <sp> d	-0.02967405
-1.473042	l <sp> g	0.0160206
-1.202676	l <sp> i	-0.06454181
-2.098405	l <sp> k	-0.1060259
-1.288635	l <sp> m	0.01853794
-1.435403	l <sp> r	0.1085798
-1.180788	l <sp> s	-0.02837083
-0.8722469	l <sp> t	0.001022651
-2.172802	l <sp> v	0.06713555
-4.021171	m <sp> '
-0.9533225	m <sp> a	-0.01033884
-1.580589	m <sp> b	-0.004902196
-1.486987	m <sp> c
-1.56611	m <sp> d
-1.858327	m <sp> e
-1.469409	m <sp> f
-1.267148	m <sp> g	0.05379483
-1.411387	m <sp> h
-1.097474	m <sp> i
-1.827009	m <sp> j	-0.2932727
-2.391116	m <sp> k
-1.5872	m <sp> l
-1.527149	m <sp> m	-0.0002590852
-1.120379	m <sp> n
-1.319459	m <sp> o	0.05298837
-1.660229	m <sp> p
-2.665566	m <sp> q
-1.620574	m <sp> r
-1.014478	m <sp> s	-0.06597967
-0.8336446	m <sp> t	0
-1.836221	m <sp> u
-2.039467	m <sp> v
-1.29875	m <sp> w
-3.564319	m <sp> x
-1.747337	m <sp> y
-3.587884	m <sp> z
-0.9435154	n <sp> a	-0.04167067
-1.458827	n <sp> b	0.03014615
-1.543952	n <sp> d	-7.025632e-05
-1.513714	n <sp> e	-0.006388501
-1.457279	n <sp> f	0.01766915
-1.429018	n <sp> h	0.1187572
-1.010832	n <sp> i	-0.01645621
-2.263255	n <sp> j	0.1449903
-2.358503	n <sp> k	-0.06543624
-1.73251	n <sp> l	-0.02312475
-1.357871	n <sp> m	-0.1337295
-1.867685	n <sp> n	-0.02333705
-1.255432	n <sp> o	0.02816457
-1.582296	n <sp> p	0.007793411
-1.752204	n <sp> r	-0.0005007274
-1.28498	n <sp> s	0.0008999538
-0.6627152	n <sp> t	-0.1597858
-1.315019	n <sp> w	-0.01626696
-4.095142	o <sp> '
-1.234807	o <sp> a	-0.03573274
-1.16334	o <sp> b	-0.2558387
-1.328743	o <sp> c
-1.277269	o <sp> d	-0.08624958
-1.68066	o <sp> e
-1.495356	o <sp> f	-0.001391207
-1.350227	o <sp> g	-0.001821402
-1.34744	o <sp> h	-0.008021771
-1.222383	o <sp> i	-0.008308741
-2.335952	o <sp> j	-0.07769545
-1.807959	o <sp> k
-1.540608	o <sp> l	-0.04570183
-1.185394	o <sp> m	0.02320853
-1.676563	o <sp> n
-1.612565	o <sp> o	-0.05088858
-1.471129	o <sp> p
-2.720892	o <sp> q
-1.571954	o <sp> r	0.01145963
-1.102264	o <sp> s	-0.09949152
-0.8965807	o <sp> t	0.06193927
-1.844515	o <sp> u	-0.002728961
-2.333279	o <sp> v	0.1371034
-1.2686	o <sp> w
-3.718356	o <sp> x
-1.157194	o <sp> y
-3.614661	o <sp> z
-0.996244	p <sp> i	-0.1374325
-0.7491872	p <sp> t	0
-1.016309	r <sp> a	-0.01166091
-1.426398	r <sp> b	0.005392309
-1.287761	r <sp> c	-0.02746362
-1.452292	r <sp> d	0.08391515
-1.551637	r <sp> e	0.003632583
-1.360763	r <sp> f	-0.02866003
-1.242569	r <sp> m	0.06062898
-1.592959	r <sp> n	0.01319794
-1.315201	r <sp> o	0.09740976
-1.604999	r <sp> r	-0.03314781
-1.134456	r <sp> s	-0.004315225
-0.8048074	r <sp> t	-0.06905302
-1.283856	r <sp> w	-0.009749289
-0.8263423	s <sp> a	-0.180887
-1.468937	s <sp> b	-0.00770101
-1.461321	s <sp> c	-0.008729913
-1.751443	s <sp> e	-0.030133
-1.367967	s <sp> f	-0.03345348
-1.50434	s <sp> h	-0.01288565
-1.031728	s <sp> i	-0.08109221
-1.958678	s <sp> j	-0.2821048
-1.601175	s <sp> l	-0.1271298
-1.438453	s <sp> m	-0.00576575
-1.32726	s <sp> n	-0.2662714
-1.222609	s <sp> o	-0.07216872
-1.536442	s <sp> p	-0.02045234
-2.557023	s <sp> q	-0.1951647
-1.647726	s <sp> r	0.003365592
-1.257718	s <sp> s	0.0009266103
-0.8370677	s <sp> t	-0.08258731
-1.926679	s <sp> u	0.03158731
-2.09004	s <sp> v	-0.2211134
-1.193213	s <sp> w	-0.05437317
-1.047693	t <sp> a	-0.01774378
-1.416679	t <sp> b	-0.06192861
-1.452314	t <sp> c	-0.0002054288
-1.428333	t <sp> d	-0.07396352
-1.701723	t <sp> e	-0.08967482
-1.489654	t <sp> f	0.006788948
-1.709385	t <sp> g	-0.01237264
-1.350727	t <sp> h	-0.1086584
-0.9479364	t <sp> i	-0.1243472
-2.247128	t <sp> j	-0.04227344
-1.601084	t <sp> l	-0.07856436
-1.330082	t <sp> m	0.03952872
-1.639077	t <sp> n	0.05486921
-1.254039	t <sp> o	-0.08328981
-1.621801	t <sp> p	0.01954535
-1.666995	t <sp> r	-0.05690229
-1.220025	t <sp> s	-0.006613594
-0.8049879	t <sp> t	0.01467471
-1.863315	t <sp> u	0.009158375
-1.107948	t <sp> w	-0.0733714
-3.925565	u <sp> '
-1.033821	u <sp> a	-0.219315
-1.638336	u <sp> b
-0.9989879	u <sp> c
-1.1551	u <sp> d
-1.764203	u <sp> e
-1.434459	u <sp> f
-1.289029	u <sp> g	0.01050884
-1.108496	u <sp> h
-1.788221	u <sp> i
-1.990018	u <sp> j
-1.314383	u <sp> k	-99
-1.440917	u <sp> l
-1.327449	u <sp> m
-1.548594	u <sp> n
-1.843454	u <sp> o
-1.61849	u <sp> p	0
-3.07866	u <sp> q
-1.606096	u <sp> r
-1.076584	u <sp> s	0.01876711
-1.074033	u <sp> t	0.1372675
-1.900576	u <sp> u	-0.09882336
-2.309602	u <sp> v
-1.03097	u <sp> w
-4.492157	u <sp> x
-2.829435	u <sp> y
-4.267404	u <sp> z
-1.058161	v <sp> t	0.2460485
-1.074558	w <sp> a	0.006448334
-1.143789	w <sp> d	-0.1252373
-1.112937	w <sp> m	-0.02562553
-0.8102309	w <sp> t	-0.06499759
-2.332543	w <sp> v	-0.06216454
-0.9191135	w <sp> w	-0.3523527
-1.156165	x <sp> o	0.02960265
-1.032786	y <sp> a	0.0005873559
-1.339975	y <sp> b	0.002868508
-1.219567	y <sp> d	0.01729889
-1.66264	y <sp> e	-0.008555202
-1.306397	y <sp> f	-0.01593756
-1.530042	y <sp> g	-0.0004896048
-1.327446	y <sp> h	-0.04651
-1.130109	y <sp> i	-0.1111703
-1.541942	y <sp> l	0.01608767
-1.364901	y <sp> m	0
-1.42257	y <sp> p	0
-2.423101	y <sp> q	-0.2309896
-1.626334	y <sp> r	0.0005131515
-1.16962	y <sp> s	0.009879418
-0.9228952	y <sp> t	0.1160084
-1.912471	y <sp> u	0.05692784
-2.236065	y <sp> v	0.1134969
-1.586072	<s> a c	-0.4070987
-0.8842218	<s> a l	-0.01524815
-0.3850786	<s> a n	-0.8573473
-1.879115	<s> a p	-0.1497459
-0.9930344	<s> a r	0.04378855
-1.270085	<s> a s	-0.4874013
-4.644627	<sp> a !
-4.383841	<sp> a '
-3.940617	<sp> a ,
-3.568386	<sp> a .
-0.624993	<sp> a <sp>	-0.002203483
-4.296532	<sp> a ?
-3.485118	<sp> a a
-1.26176	<sp> a b	-0.4590466
-1.547691	<sp> a c	-0.6597759
-1.677289	<sp> a d	-0.2007172
-3.547216	<sp> a e
-1.868978	<sp> a f
-1.620142	<sp> a g	0.1727189
-2.640702	<sp> a h
-2.434797	<sp> a i
-4.087629	<sp> a j
-3.880045	<sp> a k
-1.026146	<sp> a l	-0.2682819
-1.593539	<sp> a m
-0.6210619	<sp> a n	-0.599246
-3.894108	<sp> a o
-1.656484	<sp> a p	-0.3196818
-4.077339	<sp> a q
-0.9719814	<sp> a r	-0.535438
-1.239541	<sp> a s	-0.273628
-1.335324	<sp> a t	-0.3864541
-2.140717	<sp> a u
-2.260831	<sp> a v
-2.041519	<sp> a w
-3.507049	<sp> a x
-3.888494	<sp> a y
-4.359044	<sp> a z
-0.9001149	b a b	-0.3310305
-0.962253	b a d	-0.2222078
-1.176787	b a r	-0.09270966
-0.9103162	b a s	-0.1521774
-3.377855	c a !
-3.334348	c a '
-2.931345	c a ,
-2.427753	c a .
-2.321124	c a <sp>
-2.981547	c a ?
-3.826209	c a a
-2.171986	c a b
-2.446531	c a c
-2.388436	c a d
-3.670513	c a e
-2.782825	c a f
-2.662009	c a g
-3.929641	c a h
-3.05919	c a i
-4.529292	c a j
-2.327341	c a k
-0.8203137	c a l	-0.131222
-1.499303	c a m
-0.3590624	c a n	-0.4358138
-4.040398	c a o
-1.711217	c a p	-0.06259467
-5.072561	c a q
-1.000764	c a r	0.005345629
-1.275648	c a s
-1.027594	c a t	-0.0383154
-1.122502	c a u	-0.9604548
-2.775816	c a v
-4.244938	c a w
-4.804326	c a x
-3.558992	c a y
-4.448204	c a z
-1.403384	d a d	-0.04352788
-2.042662	d a i	-0.4400065
-1.147407	d a n	-0.2378303
-1.155396	d a r	-0.01253958
-0.6774366	d a t	-0.1557846
-0.3608526	d a y	0.06116137
-2.985463	e a !
-3.88727	e a '
-2.568336	e a ,
-1.978197	e a .
-1.743516	e a <sp>
-2.680384	e a ?
-4.344485	e a a
-2.75812	e a b
-1.398128	e a c
-0.9060621	e a d	-0.1052501
-4.541513	e a e
-2.896451	e a f
-2.527229	e a g
-1.490164	e a h
-4.283927	e a i
-5.249122	e a j
-1.482642	e a k
-0.8607559	e a l	-0.01404753
-1.621778	e a m	-0.1329542
-1.134243	e a n	-0.03587491
-4.813868	e a o
-2.209016	e a p
-4.985662	e a q
-0.7695807	e a r	-0.1299965
-0.8199337	e a s	-0.2906497
-0.8962147	e a t	-0.06521121
-1.884532	e a u
-1.569919	e a v	0.245291
-3.652383	e a w
-4.739714	e a x
-4.452595	e a y
-4.186673	e a z
-0.9180616	f a i	-0.205159
-0.9716018	f a m	-0.8882132
-1.239987	f a u	-1.42821
-0.9485027	g a r	-0.006745561
-3.158288	h a !
-4.220066	h a '
-3.168175	h a ,
-3.001645	h a .
-2.823626	h a <sp>
-3.951527	h a ?
-4.155761	h a a
-2.826086	h a b
-2.840037	h a c
-1.52311	h a d
-2.882792	h a e
-3.745089	h a f
-3.576682	h a g
-2.812286	h a h
-2.197489	h a i
-4.596089	h a j
-2.933976	h a k
-1.921115	h a l	-0.1162942
-2.358705	h a m
-0.9294446	h a n	0.1521686
-3.410655	h a o
-1.422621	h a p	-0.3127199
-4.602369	h a q
-1.434241	h a r	-0.1461056
-1.367636	h a s
-0.2996609	h a t	-0.3376632
-2.999633	h a u
-0.707296	h a v	-0.4635505
-3.097522	h a w
-4.729914	h a x
-3.48745	h a y
-3.507699	h a z
-0.4551132	i a l	0.1599287
-1.521434	i a r	-0.04944315
-0.7237855	i a t	0
-0.9028403	j a m	-0.0690541
-0.7992422	k a g	-99
-1.143782	k a t	-0.07175442
-0.99533	l a c	-0.4892203
-1.409942	l a d	-0.02079784
-1.304097	l a i	-0.3284535
-0.8723723	l a n	0.01785325
-0.9885984	l a r	-0.0597042
-0.8764863	l a s	-0.155397
-0.7547883	l a t	-0.824172
-1.012635	l a y	0.01010966
-3.386319	m a !
-2.46784	m a '
-2.834184	m a ,
-2.375705	m a .
-2.047829	m a <sp>
-2.924511	m a ?
-3.675356	m a a
-2.930294	m a b
-1.689717	m a c
-1.315282	m a d
-3.750297	m a e
-3.612216	m a f
-1.405991	m a g	-0.1955889
-3.203931	m a h
-1.283407	m a i	-0.0699242
-2.036856	m a j
-0.7880136	m a k	-0.000813099
-1.29232	m a l	0.0005701557
-2.877771	m a m
-0.7088758	m a n	-0.1003299
-3.763496	m a o
-1.956772	m a p
-4.69957	m a q
-1.080617	m a r	-0.06967188
-1.545084	m a s
-0.8802437	m a t	-0.4310859
-3.247066	m a u
-3.816563	m a v
-4.05526	m a w
-2.319573	m a x
-0.9016224	m a y
-1.911478	m a z
-1.482556	n a b	-1.020532
-0.5572166	n a l	0.15911
-0.8274949	n a m	-0.8797572
-1.392465	n a r	-0.2570136
-0.733938	n a t	-0.07868908
-1.93461	n a v	-0.07489499
-1.254697	p a g	-0.5340126
-1.045202	p a n	-0.13402
-0.4448878	p a r	-0.2668447
-1.076111	p a t	-0.04526522
-1.05342	r a i	-0.05290429
-1.125445	r a l	0.1514268
-0.8067467	r a n	-0.05654807
-1.376587	r a p	-0.0554362
-1.638947	r a r	-0.05036899
-0.728691	r a t	0
-1.743404	s a b	-0.08269022
-1.280662	s a l	0.189704
-0.7868369	s a m	-0.6549184
-1.360545	s a r	-0.07507198
-0.6215603	s a y	0.006451056
-3.369836	t a !
-3.507455	t a '
-2.603662	t a ,
-2.108978	t a .
-1.429097	t a <sp>	-0.02060705
-2.781136	t a ?
-3.882625	t a a
-1.236524	t a b	-0.5079877
-1.462137	t a c
-2.585806	t a d
-3.630079	t a e
-2.35474	t a f
-1.6034	t a g	-0.03814721
-3.214917	t a h
-1.084326	t a i	-0.2114455
-3.962511	t a j
-0.7994109	t a k	-0.3136749
-0.8214314	t a l	0.1436554
-2.304898	t a m
-0.8068323	t a n	-0.1678955
-3.658918	t a o
-2.182767	t a p
-4.493365	t a q
-1.020242	t a r	-0.5155761
-1.634973	t a s
-1.013569	t a t
-2.097623	t a u
-3.33754	t a v
-3.316864	t a w
-2.014341	t a x
-1.513663	t a y
-4.11512	t a z
-2.398061	u a i	-99
-0.2069208	u a l	-0.1233832
-0.9689849	v a i	-1.175822
-0.5343369	v a l	-0.2980616
-4.439329	w a !
-4.508549	w a '
-3.894618	w a ,
-3.347506	w a .
-3.099269	w a <sp>
-4.064502	w a ?
-3.621837	w a a
-3.246938	w a b
-3.365332	w a c
-2.757236	w a d
-4.314795	w a e
-3.28982	w a f
-2.674847	w a g
-3.466008	w a h
-1.32147	w a i	-1.313837
-4.795078	w a j
-2.246143	w a k
-1.532018	w a l
-3.340554	w a m
-0.6619771	w a n
-4.685959	w a o
-2.782108	w a p
-5.180441	w a q
-1.077023	w a r	-0.2198205
-0.480126	w a s	-0.6139234
-1.343127	w a t	-0.3855912
-4.023183	w a u
-2.452282	w a v
-4.000684	w a w
-3.343635	w a x
-0.6471469	w a y	0.02089836
-4.02134	w a z
-0.3320632	z a t	-1.934221
-1.3434	<s> b a	-0.07366332
-0.9574301	<sp> b a	-0.03182161
-0.3465262	<sp> b e	-0.05712994
-1.548222	<sp> b l	-0.2195299
-1.095415	<sp> b o	-0.1090582
-1.216552	<sp> b r	-0.006074863
-0.7682359	<sp> b u	0.07978485
-1.353281	<sp> b y	-0.3441703
-1.782951	a b e	0.009112675
-1.395327	a b i	0
-0.4825567	a b l	-1.88521
-0.3097019	a b o	-0.8263447
-0.6855003	b b i	-99
-0.2711069	i b l	-0.008604978
-0.9767266	i b u	-0.8013171
-1.188811	m b l	-0.02008879
-0.7729858	o b a	-0.7546014
-0.1839896	s b a	-99
-0.6172636	y b o	-0.7253984
-1.301108	<s> c l	-0.02425238
-4.610736	<sp> c !
-3.926077	<sp> c '
-3.9333	<sp> c ,
-3.517581	<sp> c .
-2.972506	<sp> c <sp>
-4.074111	<sp> c ?
-0.5174658	<sp> c a	-0.05904087
-3.487025	<sp> c b
-3.289298	<sp> c c
-2.918387	<sp> c d
-1.721765	<sp> c e
-3.596524	<sp> c f
-3.544881	<sp> c g
-0.9084299	<sp> c h	-99
-1.912008	<sp> c i	0.01400359
-4.347201	<sp> c j
-4.124555	<sp> c k
-1.187603	<sp> c l	-0.0496296
-3.325238	<sp> c m
-3.444332	<sp> c n
-0.4029193	<sp> c o	-0.01185458
-3.137835	<sp> c p
-4.646503	<sp> c q
-1.380702	<sp> c r	-0.04819098
-2.783579	<sp> c s
-3.513581	<sp> c t
-1.53003	<sp> c u	-0.08600196
-3.454711	<sp> c v
-3.995513	<sp> c w
-4.533039	<sp> c x
-2.818271	<sp> c y
-4.033341	<sp> c z
-1.037276	a c c	0.04595227
-0.8195533	a c e	-0.0529047
-0.5887204	a c k	0.008149808
-0.5500711	a c t	-0.06073337
-0.328054	c c e	-0.2638958
-0.8960605	c c u	-0.3973572
-4.077329	e c !
-3.949462	e c '
-3.397997	e c ,
-2.635367	e c .
-2.502194	e c <sp>
-3.405943	e c ?
-0.9337437	e c a
-4.445321	e c b
-2.754992	e c c
-3.517005	e c d
-1.11187	e c e	-0.102677
-4.357316	e c f
-4.2941	e c g
-1.390573	e c h	-0.3363705
-0.8367586	e c i	-0.2032027
-4.873877	e c j
-1.104831	e c k
-2.095222	e c l
-3.687288	e c m
-4.093759	e c n
-0.9119447	e c o	-0.03289153
-4.243708	e c p
-4.865137	e c q
-1.743928	e c r	-0.5388829
-2.640771	e c s
-0.4566105	e c t
-1.518683	e c u
-4.416244	e c v
-4.714925	e c w
-4.884965	e c x
-2.774158	e c y
-4.67825	e c z
-0.9856404	i c <sp>	0.002970548
-0.7397505	i c a	-0.1831243
-0.6383246	i c e	-0.2081869
-0.9947529	i c h	0
-1.267767	i c i	0.009870483
-0.908722	i c k	-0.02195126
-1.272087	i c t	0.02633869
-1.464479	i c u	-1.410027
-4.25911	n c !
-4.027719	n c '
-3.563409	n c ,
-2.758627	n c .
-2.402487	n c <sp>
-3.572946	n c ?
-2.171355	n c a
-4.423123	n c b
-3.934685	n c c
-4.060826	n c d
-0.2122481	n c e	-0.06044169
-4.245438	n c f
-4.65834	n c g
-1.131881	n c h
-1.237122	n c i	-0.03273122
-5.109444	n c j
-3.741525	n c k
-1.186937	n c l	-0.4908219
-3.93673	n c m
-4.448677	n c n
-1.27805	n c o
-4.124362	n c p
-5.017083	n c q
-1.519068	n c r
-3.295842	n c s
-1.275463	n c t
-2.52918	n c u
-4.360411	n c v
-4.709701	n c w
-4.951471	n c x
-1.439059	n c y
-4.83358	n c z
-0.8695958	o c u	-0.3245487
-1.171271	r c u	0
-0.8663279	s c a	-0.1691438
-0.8883271	s c o	-0.0800084
-0.07497823	t c h	-0.1721626
-0.2697471	u c h	-0.5558872
-0.3402518	x c e	-99
-1.164484	x c l	-1.369538
-1.246342	<s> d a	-0.1319556
-0.7105516	<s> d i
-0.2066095	<s> d o
-3.479387	<s> d t	-99
-1.032803	<sp> d a	0.004202518
-0.8111127	<sp> d e	-0.07310644
-0.6918265	<sp> d i	-0.03577619
-0.3268412	<sp> d o	-0.01436533
-1.299755	<sp> d r	0.0004631059
-3.371915	<sp> d t	0
-0.4678203	a d <sp>	0.01104877
-1.016263	a d d	-0.04652673
-0.9049222	a d e	0.01788443
-1.189626	a d i	-0.02384411
-1.888842	a d l	-0.2079761
-1.015598	a d y	-0.1050781
-0.7384223	d d <sp>	-0.009033186
-0.7546514	d d e	-0.2482817
-1.086555	d d y	0.2399402
-0.8743508	e d .	-99
-0.1696423	e d <sp>	-0.1651563
-1.86106	e d e	0.02080395
-2.13481	e d g	-0.1958379
-2.621943	e d l	-0.1982768
-3.587338	e d t	-99
-0.1681084	h d a	-99
-0.4945097	i d <sp>	0.00587617
-0.450034	i d e	-0.03143948
-1.636181	i d i	-0.08063748
-2.567774	i d l	-0.1024822
-0.1137603	l d <sp>	-0.05312315
-0.1747177	n d <sp>	0.01756543
-1.576097	n d a	-0.1156697
-1.040235	n d e	-0.4561957
-1.405397	n d i	0
-1.901757	n d l	0.05990456
-2.305703	n d y	0.1774237
-1.042625	o d .	-99
-0.9456714	o d a	0
-0.8884082	o d e	-0.005765322
-0.9983613	o d y	-0.161234
-0.1010352	p d a	-99
-0.4196194	r d <sp>	-0.001341987
-0.8476966	r d e	-0.5579365
-1.191966	r d i	-0.7772122
-1.723963	r d l	-0.2552169
-1.075117	u d d	-0.1360694
-0.4270268	u d e	-0.004716622
-0.9930655	u d y	0.151357
-1.378828	<s> e i
-1.11096	<s> e n	-0.007961389
-0.4090638	<s> e v	-0.6744648
-0.7257966	<s> e x
-0.9516885	<sp> e a	-0.09132518
-1.61964	<sp> e i	-0.7004272
-1.381214	<sp> e m	-0.1490929
-0.8038167	<sp> e n	-0.1053122
-0.6529793	<sp> e v	-0.2788865
-0.6414752	<sp> e x	-0.1781181
-0.3614993	b e <sp>	0.03028025
-1.182807	b e c	-0.02923379
-1.426639	b e f	-2.298524
-1.293494	b e l	-0.3655868
-1.422654	b e s	-1.411292
-1.13811	b e t	0
-0.8839666	c e .	0.005256235
-0.4357445	c e <sp>	-0.1130138
-1.398086	c e d	0.02045742
-1.752378	c e i	-99
-0.8353333	c e s	-0.3757495
-1.021481	d e a	0.005843457
-1.131359	d e d	-0.07560193
-2.455629	d e g	-1.128881
-1.368112	d e l	-0.1863889
-1.115036	d e n	-0.208659
-0.6702527	d e r	-0.1857977
-1.083627	d e s	0.06253514
-1.622792	d e v	-0.1390708
-1.550686	e e .	0
-0.6873803	e e <sp>	-0.03340289
-0.6607029	e e d	-0.01007904
-2.021273	e e i	-99
-1.279366	e e k	-0.0001977786
-1.274478	e e m	0.04033571
-1.137509	e e p	-0.3647209
-1.259134	e e t	0
-1.314014	f e a	-0.3520555
-2.67212	f e i	-99
-0.5038036	f e r	-0.3941219
-0.7380024	g e <sp>	-0.02084732
-1.144095	g e n	-0.3892003
-1.072106	g e r	0.02242302
-1.025756	g e s	-0.04120106
-0.4011586	g e t	0
-0.2932941	h e <sp>	-0.2724898
-1.585491	h e a	0.02646121
-1.900914	h e i	0
-1.587312	h e l	-0.5234067
-1.512977	h e m	0.01227538
-0.6810823	h e r	-0.5284572
-1.601138	h e s	0.09501131
-2.558688	h e t	-0.3998342
-1.204256	h e y	-0.1737263
-1.76659	i e f	-0.03117973
-0.6485807	i e n	-0.3060676
-0.6451184	i e s	-0.2076153
-1.038385	i e v	-0.3268844
-1.951152	j e l	-0.8033915
-0.2566127	k e <sp>	-0.2510091
-1.239649	k e e	-1.406656
-1.871227	k e l	0.07003623
-1.318057	k e n	0
-2.75627	k e v	-1.006145
-1.475023	k e y	0.2660514
-0.5527577	l e <sp>	-0.05373513
-0.7872344	l e a	-0.6284166
-1.33574	l e d	-0.1808096
-1.743498	l e g	-0.1029001
-1.221438	l e m	-0.01092635
-1.104325	l e s	-0.02593889
-0.4443356	m e <sp>	-0.070883
-1.267329	m e a	0.04657078
-2.082138	m e l	-0.0898136
-0.8580611	m e n	-0.5675755
-1.466995	m e r	-0.0003692603
-1.238856	m e s	-0.0354781
-1.071472	m e t	-0.468706
-0.5579591	n e <sp>	-0.04678486
-1.955261	n e a	-0.4145732
-1.205618	n e d	-0.0788302
-1.231458	n e r	-0.1415227
-1.140251	n e s	0.04448426
-1.50657	n e x	-1.189569
-0.03964942	o e s	-0.2224009
-1.202998	p e a	0.01564064
-0.9194915	p e c	-0.2332783
-0.7475945	p e n	-0.06268944
-0.9055608	p e o	-99
-0.5504749	p e r	-0.08720568
-1.783843	p e s	-0.1800411
-1.26407	r e .	0.005119546
-0.4212657	r e <sp>	0.02367242
-0.8674083	r e a	-0.1122538
-1.42229	r e c	-0.07081226
-1.438817	r e d	0.1355653
-1.448803	r e e	-0.03066811
-1.812683	r e f	-0.1950657
-2.71537	r e i	-0.0006665565
-1.714511	r e l	-0.1900011
-1.332567	r e n	-0.2998556
-1.727369	r e p	-0.0789012
-2.012218	r e q	-0.2419348
-1.081633	r e s	0.0611151
-1.656649	r e t	-0.01567308
-0.5062389	s e <sp>	-0.05018373
-1.51196	s e c	-0.06301264
-1.091629	s e d	-0.2240303
-0.8606889	s e e	-0.4914095
-2.261465	s e m	-0.08008228
-1.226532	s e n	-0.07662331
-1.150045	s e r	-0.4409996
-1.404756	s e s	-0.1782904
-1.495685	s e t	0
-0.8140582	t e <sp>	-0.03080386
-1.498642	t e a	-0.1420427
-0.8439077	t e d	-0.07061528
-2.175972	t e g	0.05107446
-1.056716	t e l	-0.8126515
-1.111688	t e n	0.04010892
-0.5379998	t e r	-0.1073917
-1.246147	t e s	-0.04756086
-1.80013	t e x	-0.7699318
-0.6407415	u e <sp>	0.003121193
-1.749714	u e r	-0.2097389
-0.3153335	u e s	0
-0.3170726	v e <sp>	-0.09604114
-2.76581	v e g	-0.6093048
-1.567542	v e l	-0.0781964
-1.093442	v e n	0.07519874
-0.5269814	v e r	-0.3432485
-1.523782	v e s	-0.1843261
-1.538692	w e a	-0.3112377
-1.121807	w e e	-0.5317634
-0.7919998	w e l	-0.7741423
-1.689369	w e n	0.02790372
-0.8311523	w e r	-0.2346153
-0.4598819	y e s	-0.2849263
-0.9152222	y e t	-0.20894
-0.406333	<s> f o	0.08104037
-1.309772	<s> f u	-0.01933731
-4.609039	<sp> f !
-4.431331	<sp> f '
-4.473862	<sp> f ,
-3.849376	<sp> f .
-3.342824	<sp> f <sp>
-4.307038	<sp> f ?
-0.9658676	<sp> f a	0.006223308
-3.340211	<sp> f b
-3.758497	<sp> f c
-3.71448	<sp> f d
-1.134597	<sp> f e	-0.03739917
-3.606259	<sp> f f
-4.271365	<sp> f g
-4.390885	<sp> f h
-0.7496819	<sp> f i	-0.04126994
-4.602998	<sp> f j
-4.412931	<sp> f k
-1.556391	<sp> f l	0.006593215
-3.732508	<sp> f m
-4.027808	<sp> f n
-0.3811269	<sp> f o	0.02336812
-3.70005	<sp> f p
-4.427835	<sp> f q
-0.8532279	<sp> f r	0.0001036246
-3.62478	<sp> f s
-3.157721	<sp> f t
-1.275749	<sp> f u	0.1235305
-4.614223	<sp> f v
-3.873981	<sp> f w
-4.264214	<sp> f x
-3.952601	<sp> f y
-5.354658	<sp> f z
-0.8569347	e f e	-0.4486378
-1.746857	e f l	-0.0238123
-0.634532	e f o	-0.8041449
-0.3532919	f f e	-0.3875915
-0.7438201	f f i	-1.164692
-2.381894	f f y	0.1092405
-3.826615	i f !
-4.171325	i f '
-3.05765	i f ,
-2.806438	i f .
-0.2597699	i f <sp>	0.01560758
-3.491418	i f ?
-2.867903	i f a
-4.53719	i f b
-3.940884	i f c
-4.338339	i f d
-1.014456	i f e
-0.8421661	i f f	-0.411391
-4.801513	i f g
-4.438234	i f h
-1.00922	i f i	-0.1278172
-5.165146	i f j
-4.784323	i f k
-2.956982	i f l
-4.528053	i f m
-4.434895	i f n
-2.179105	i f o
-4.680176	i f p
-5.67539	i f q
-3.349654	i f r
-2.944837	i f s
-1.506742	i f t
-1.481891	i f u
-5.056335	i f v
-4.388527	i f w
-4.852425	i f x
-1.474309	i f y
-5.527802	i f z
-0.211795	k f a	-99
-0.0868656	m f o	-1.41026
-0.725769	n f i	0.1209287
-0.3077281	n f o	0
-0.08052996	o f <sp>	-0.05344813
-0.9733078	o f f	-0.01745741
-1.509333	o f t	0.00801247
-0.587562	r f u	0
-0.6274423	s f e	-99
-0.03597393	u f f	-0.007659119
-1.621045	<s> g a	-0.03402942
-0.7563952	<s> g e	-0.03001168
-0.3201739	<s> g o
-0.8552351	<s> g r
-4.174227	<sp> g !
-4.159317	<sp> g '
-4.111564	<sp> g ,
-3.541944	<sp> g .
-3.27982	<sp> g <sp>
-4.100006	<sp> g ?
-1.303149	<sp> g a	-0.006787359
-3.702669	<sp> g b
-3.257345	<sp> g c
-3.370541	<sp> g d
-0.6621373	<sp> g e	-1.010143
-3.786683	<sp> g f
-3.89007	<sp> g g
-2.800246	<sp> g h
-1.076823	<sp> g i	-0.2889201
-4.422096	<sp> g j
-4.174166	<sp> g k
-1.674357	<sp> g l
-3.080949	<sp> g m
-3.079212	<sp> g n
-0.3711811	<sp> g o	0.0007348007
-2.849597	<sp> g p
-4.595764	<sp> g q
-0.927787	<sp> g r	-0.01167535
-3.325854	<sp> g s
-3.324475	<sp> g t
-1.134723	<sp> g u	-0.09552934
-3.989834	<sp> g v
-3.544118	<sp> g w
-4.693269	<sp> g x
-2.718571	<sp> g y
-3.943294	<sp> g z
-1.593585	a g <sp>	0.06983068
-0.3514264	a g e	-0.1354658
-1.235446	a g i	-0.09440351
-0.9478008	a g r	-0.6342798
-0.0512836	d g e	0.006824779
-0.6433753	e g a	0
-0.9434994	e g e	-0.01543222
-0.6474177	e g i	0
-1.018627	e g r	-0.101562
-0.9107071	g g i	-99
-3.049281	i g !
-3.61325	i g '
-2.66244	i g ,
-2.185883	i g .
-1.218182	i g <sp>
-2.91704	i g ?
-1.637857	i g a
-3.962763	i g b
-4.172719	i g c
-4.038206	i g d
-1.834803	i g e
-3.749762	i g f
-1.660446	i g g
-0.1870772	i g h	-0.5025373
-1.419012	i g i
-4.739166	i g j
-4.81235	i g k
-3.405853	i g l
-2.890427	i g m
-0.9060567	i g n
-2.646946	i g o
-4.140082	i g p
-4.814187	i g q
-2.264231	i g r
-2.609397	i g s
-3.651531	i g t
-1.358491	i g u	-0.853107
-4.694422	i g v
-4.339468	i g w
-5.032677	i g x
-3.837763	i g y
-4.598789	i g z
-0.40012	l g o	-1.120013
-0.1736381	n g <sp>	-0.004186498
-1.822605	n g l	-0.02969467
-0.8319325	o g i	-0.2115602
-0.6625858	o g r	-0.5724892
-0.2921056	r g e	0.00713341
-1.082664	r g i	-99
-1.706477	t g i	-99
-0.9830803	u g g	-99
-0.1186997	u g h	0.00272147
-0.8303917	<s> h a	-0.007763823
-1.838629	<s> h m
-0.4167602	<s> h o	-0.7196375
-4.531151	<sp> h !
-4.700197	<sp> h '
-4.485065	<sp> h ,
-3.924044	<sp> h .
-3.700866	<sp> h <sp>
-4.43305	<sp> h ?
-0.3594119	<sp> h a	-0.3903168
-3.849862	<sp> h b
-3.962539	<sp> h c
-3.386073	<sp> h d
-0.5807781	<sp> h e	-0.4406037
-4.292262	<sp> h f
-4.222277	<sp> h g
-4.187932	<sp> h h
-1.046958	<sp> h i
-4.660126	<sp> h j
-4.333004	<sp> h k
-4.121228	<sp> h l
-2.903712	<sp> h m
-4.430191	<sp> h n
-0.7660701	<sp> h o	-0.1501408
-3.439754	<sp> h p
-4.14986	<sp> h q
-3.302319	<sp> h r
-3.748879	<sp> h s
-2.397308	<sp> h t
-1.542757	<sp> h u
-4.145603	<sp> h v
-3.976922	<sp> h w
-4.766685	<sp> h x
-2.596563	<sp> h y
-4.977528	<sp> h z
-1.864373	c h ,	0.2977556
-0.4680711	c h <sp>	0.03065956
-0.7216415	c h a	-0.08650186
-0.8102016	c h e	-0.045794
-0.98668	c h i	-0.009459823
-1.744536	c h n	-0.1912796
-2.191634	g h !
-4.045914	g h '
-1.763395	g h ,
-1.106427	g h .
-0.8554863	g h <sp>
-1.979244	g h ?
-2.622455	g h a
-2.077274	g h b
-3.995784	g h c
-3.87052	g h d
-1.913316	g h e
-4.240597	g h f
-4.395673	g h g
-4.12745	g h h
-2.51531	g h i
-4.994407	g h j
-5.077832	g h k
-1.922595	g h l	-0.1467361
-4.345651	g h m
-3.159217	g h n
-2.210242	g h o
-3.491253	g h p
-5.080955	g h q
-4.168603	g h r
-2.763574	g h s
-0.1555371	g h t	0
-3.648878	g h u
-4.966825	g h v
-2.897718	g h w
-5.490197	g h x
-4.041255	g h y
-5.185184	g h z
-0.4317249	n h e	-0.5583163
-0.933868	o h n	-0.03095998
-0.8491187	p h i	-0.191589
-0.9737594	p h y	0.06244475
-2.471965	s h !
-3.458785	s h '
-2.047484	s h ,
-1.57165	s h .
-0.9452463	s h <sp>
-2.1386	s h ?
-1.071758	s h a	-0.2050762
-3.285179	s h b
-3.619456	s h c
-3.551262	s h d
-0.6241222	s h e	-0.01306689
-3.408345	s h f
-4.421574	s h g
-3.582528	s h h
-1.049177	s h i	-0.2202048
-4.898177	s h j
-4.038186	s h k
-2.956715	s h l
-2.383477	s h m
-3.191466	s h n
-0.39722	s h o	-0.3163058
-3.82081	s h p
-5.05137	s h q
-2.305197	s h r
-3.754838	s h s
-3.232789	s h t
-2.007523	s h u
-3.691186	s h v
-3.238283	s h w
-4.768649	s h x
-2.491235	s h y
-5.299236	s h z
-1.21076	t h <sp>	0.02091392
-0.7737514	t h a	-2.074243
-0.2852596	t h e	-0.4257755
-0.7211673	t h i	-1.2699
-1.908437	t h r	-0.0692463
-2.92639	t h y	0.2898028
-5.307379	w h !
-5.363703	w h '
-4.752393	w h ,
-3.934202	w h .
-3.953279	w h <sp>
-5.03315	w h ?
-0.3408859	w h a	-2.298083
-5.573244	w h b
-4.813373	w h c
-5.12617	w h d
-0.638136	w h e	-0.1874095
-5.382874	w h f
-5.400055	w h g
-4.943461	w h h
-1.032542	w h i	-0.3838921
-5.919956	w h j
-5.595026	w h k
-4.945628	w h l
-4.419907	w h m
-4.905254	w h n
-0.9986464	w h o
-5.140877	w h p
-5.445342	w h q
-4.634788	w h r
-4.632556	w h s
-4.147445	w h t
-4.339769	w h u
-5.45156	w h v
-5.050649	w h w
-6.054098	w h x
-0.9204082	w h y	-0.2782214
-5.949608	w h z
-0.8138884	<s> i '
-0.2976491	<s> i <sp>	-0.0019362
-1.282975	<s> i s	-0.5747033
-4.523826	<sp> i !
-1.234337	<sp> i '
-3.637807	<sp> i ,
-3.278565	<sp> i .
-0.6709311	<sp> i <sp>	-0.01197797
-3.182943	<sp> i ?
-3.53876	<sp> i a
-3.665976	<sp> i b
-2.708152	<sp> i c
-1.867214	<sp> i d	-0.009835552
-3.422683	<sp> i e
-1.369287	<sp> i f	-1.740108
-2.769989	<sp> i g
-4.585485	<sp> i h
-3.55178	<sp> i i
-4.765625	<sp> i j
-3.898125	<sp> i k
-2.720111	<sp> i l
-1.641239	<sp> i m	-0.3985753
-0.673573	<sp> i n	-0.5165722
-3.489629	<sp> i o
-3.06139	<sp> i p
-4.212609	<sp> i q
-2.667778	<sp> i r
-0.6897959	<sp> i s	-0.58005
-0.6561107	<sp> i t	-0.1616901
-4.48319	<sp> i u
-3.550338	<sp> i v
-4.474282	<sp> i w
-4.751665	<sp> i x
-5.019425	<sp> i y
-4.408626	<sp> i z
-0.7633979	a i l	0.006297994
-0.3677841	a i n	-0.03011165
-1.000968	a i r	-0.001817239
-1.706145	a i s	-0.4977431
-1.020409	a i t	0
-2.016701	b i c	-99
-1.692415	b i o	-0.04113806
-0.5740768	c i a	-0.7931341
-1.040416	c i d	-0.9958834
-1.035414	c i e	0.00596315
-1.063931	c i f	-0.8794271
-1.060701	c i n	0.01210145
-4.004193	d i !
-3.914373	d i '
-3.458582	d i ,
-3.053652	d i .
-2.63481	d i <sp>
-3.719222	d i ?
-1.400993	d i a	-0.0007421006
-2.195127	d i b
-1.354095	d i c	-0.1213239
-0.5388109	d i d
-1.398746	d i e	-0.02920583
-0.9682167	d i f
-1.988632	d i g
-4.753772	d i h
-4.084354	d i i
-4.318654	d i j
-3.881299	d i k
-2.580621	d i l
-2.359211	d i m
-0.7504828	d i n	-0.008783336
-1.774089	d i o	-0.09136122
-2.723408	d i p
-4.685553	d i q
-1.420898	d i r
-0.8860716	d i s	-0.1645193
-1.219432	d i t	-0.3007183
-2.441292	d i u
-1.685098	d i v
-4.331099	d i w
-3.132994	d i x
-3.603086	d i y
-2.82617	d i z
-1.944598	e i l	0.2282717
-0.7879207	e i t	-1.284942
-0.8295332	f i c	-99
-1.262122	f i e	0.07882187
-1.233435	f i g	-0.7054452
-0.4960143	f i n	-0.1064604
-0.7636743	f i r	-0.5458798
-1.218618	g i c	-0.1409145
-0.4714076	g i v	-0.3334933
-3.12894	h i !
-4.426395	h i '
-2.43101	h i ,
-2.807599	h i .
-2.254743	h i <sp>
-3.875307	h i ?
-3.196443	h i a
-2.84488	h i b
-1.318657	h i c	-0.5732753
-2.387401	h i d
-2.160879	h i e
-2.750078	h i f
-1.857647	h i g
-4.52534	h i h
-4.250807	h i i
-3.706922	h i j
-3.121055	h i k
-1.495037	h i l	0.2745467
-1.333956	h i m
-0.4307786	h i n	-0.1473671
-2.728459	h i o
-1.820782	h i p	0
-4.914199	h i q
-2.029657	h i r
-0.380993	h i s	-0.375223
-1.776914	h i t
-4.207746	h i u
-2.731879	h i v
-4.736202	h i w
-4.76186	h i x
-4.029351	h i y
-3.565688	h i z
-0.1117069	k i n	-1.206842
-3.91032	l i !
-3.896716	l i '
-3.407596	l i ,
-2.94713	l i .
-2.694885	l i <sp>
-3.556337	l i ?
-1.640959	l i a
-1.925487	l i b
-1.118469	l i c	0
-1.726938	l i d
-1.104335	l i e	-0.215231
-1.367757	l i f
-1.444591	l i g
-3.510791	l i h
-4.13328	l i i
-4.233729	l i j
-0.6138985	l i k	-0.8667115
-2.767238	l i l
-1.707127	l i m
-0.7917576	l i n	0.004544479
-2.104208	l i o
-2.034355	l i p
-2.888205	l i q
-3.459308	l i r
-1.069921	l i s	-0.1173286
-0.9355271	l i t	-0.002867091
-3.590482	l i u
-1.355134	l i v	-0.07507519
-4.617529	l i w
-3.272135	l i x
-4.247484	l i y
-1.759502	l i z
-0.9687757	m i g	-0.7804435
-0.8820435	m i l	-0.4158275
-0.4605899	m i n	0.02814454
-0.7109329	m i s	0
-0.795042	n i c	-0.4531862
-0.9230479	n i g	-1.029541
-0.5484658	n i n	0
-0.8846343	n i t	-0.3384321
-1.154928	o i c	-1.621113
-0.0819496	o i n	-0.214044
-0.5791712	p i c	0.0551175
-1.311149	p i d	-0.0242863
-1.117199	p i t	0
-1.415875	r i b	-0.01326127
-0.8469851	r i e	-0.2522017
-1.897525	r i l	-0.2152714
-1.736	r i m	-0.04784042
-1.366348	r i o	-0.3335165
-1.434117	r i p	0.01193054
-1.008617	r i t	-0.3123537
-1.15203	s i b	-0.4241685
-1.255099	s i c	-0.04699234
-0.9967689	s i d	-1.540858
-1.667912	s i l	0.202845
-1.234016	s i m	-0.8041334
-0.6961688	s i n	-0.2019992
-0.9056052	s i o	-1.453169
-1.570743	s i v	-1.21653
-4.305808	t i !
-4.268547	t i '
-3.864087	t i ,
-3.254001	t i .
-2.911912	t i <sp>
-3.926981	t i ?
-1.791532	t i a	-0.2827595
-2.660076	t i b
-1.085648	t i c	-0.002364058
-2.958043	t i d
-1.587637	t i e	-0.3537295
-1.632609	t i f
-2.168603	t i g
-4.325684	t i h
-4.188079	t i i
-4.557712	t i j
-3.780115	t i k
-1.18889	t i l	-0.3187276
-0.8582753	t i m	-0.8682247
-0.7323084	t i n	-0.6604113
-0.4592391	t i o	-1.44676
-2.08816	t i p
-3.034473	t i q
-1.887356	t i r
-1.862412	t i s
-1.737945	t i t	-0.1290551
-3.776123	t i u
-1.320318	t i v
-4.7852	t i w
-4.186872	t i x
-4.497538	t i y
-2.694647	t i z
-0.9192331	u i c	-0.6959243
-0.8414755	u i r	-0.7264084
-4.021459	v i !
-3.864715	v i '
-3.432023	v i ,
-2.955329	v i .
-2.785814	v i <sp>
-3.733316	v i ?
-1.611501	v i a
-2.657956	v i b
-0.9469749	v i c	-0.5962323
-0.8471368	v i d	-0.3851196
-0.8418967	v i e
-4.00206	v i f
-2.056122	v i g
-4.586727	v i h
-3.711759	v i i
-3.840003	v i j
-3.243423	v i k
-1.468164	v i l
-3.188593	v i m
-0.6088064	v i n	0
-1.089197	v i o
-2.975142	v i p
-4.814288	v i q
-1.536426	v i r
-0.9836418	v i s	-0.449069
-1.30962	v i t
-4.010716	v i u
-1.829074	v i v
-4.659635	v i w
-3.908802	v i x
-4.641216	v i y
-3.268428	v i z
-4.808404	w i !
-4.566209	w i '
-4.516253	w i ,
-3.504188	w i .
-3.528164	w i <sp>
-4.539076	w i ?
-4.280338	w i a
-4.523508	w i b
-2.030797	w i c
-2.04038	w i d
-3.283556	w i e
-1.816958	w i f
-3.100118	w i g
-4.435032	w i h
-3.689824	w i i
-4.61131	w i j
-2.796653	w i k
-0.4905323	w i l
-2.346953	w i m
-1.024757	w i n
-4.698231	w i o
-2.763712	w i p
-5.7132	w i q
-2.272922	w i r
-1.350973	w i s
-0.3124047	w i t	-1.457215
-5.065107	w i u
-3.712915	w i v
-3.648961	w i w
-4.080834	w i x
-5.065503	w i y
-3.016978	w i z
-0.3831183	x i s	-1.168625
-1.382019	<sp> j e	-0.009929282
-0.7475994	<sp> j o	-0.00624502
-0.1836503	<sp> j u	-0.01599468
-0.01350339	b j e	-99
-0.1089624	n j o	-1.71464
-0.3376288	<s> k e	-0.01229742
-1.756282	<sp> k a	-0.1170284
-0.7916869	<sp> k e	-0.7875783
-0.6820381	<sp> k i	0.3535108
-0.2319961	<sp> k n	-0.06901059
-0.1179337	a k e	-0.2111801
-0.9218676	a k i	-1.005999
-0.3542156	c k <sp>	-0.02734216
-1.262219	c k i	-0.377052
-1.589605	c k l	-0.04448412
-0.7072572	e k e	-0.9973764
-1.749258	e k l	-0.9373014
-0.01123343	i k e	-0.4595644
-0.5064122	l k i	-99
-1.179733	n k i	-0.8698163
-2.19882	n k l	0.01939566
-0.4911244	o k <sp>	-0.02417665
-0.8258932	o k i	-0.4163495
-0.4650698	r k <sp>	-0.004588895
-0.8435245	r k i	-1.065042
-0.7283075	<s> l i	-0.1347267
-4.477103	<sp> l !
-3.925203	<sp> l '
-4.15419	<sp> l ,
-3.498812	<sp> l .
-3.254662	<sp> l <sp>
-4.25532	<sp> l ?
-0.8795318	<sp> l a	-0.00245291
-3.921727	<sp> l b
-3.340626	<sp> l c
-3.296981	<sp> l d
-0.7513263	<sp> l e	-0.1561456
-3.622796	<sp> l f
-3.933877	<sp> l g
-3.997548	<sp> l h
-0.4352266	<sp> l i	-0.171013
-4.548794	<sp> l j
-4.201572	<sp> l k
-3.300416	<sp> l l
-3.744959	<sp> l m
-3.831068	<sp> l n
-0.5317652	<sp> l o	-0.02064689
-3.706427	<sp> l p
-4.849448	<sp> l q
-3.831721	<sp> l r
-3.328176	<sp> l s
-3.159708	<sp> l t	-99
-1.664999	<sp> l u
-3.786905	<sp> l v
-4.160054	<sp> l w
-4.391491	<sp> l x
-2.572045	<sp> l y
-4.631446	<sp> l z
-2.715147	a l !
-3.349559	a l '
-2.079714	a l ,
-1.523772	a l .
-0.7863758	a l <sp>	-0.003896726
-2.16472	a l ?
-1.998675	a l a
-2.764527	a l b
-2.418802	a l c
-2.738463	a l d
-1.662231	a l e
-2.095299	a l f
-2.672353	a l g	-0.1991397
-3.982762	a l h
-1.307529	a l i
-4.969808	a l j
-1.298326	a l k
-0.3550734	a l l	-0.1311263
-1.927912	a l m
-3.884466	a l n
-1.712919	a l o
-2.790673	a l p
-5.005355	a l q
-1.58199	a l r	-0.08205568
-1.189356	a l s	-0.3296396
-1.701901	a l t	-0.2048703
-1.769456	a l u	-0.3977426
-3.073259	a l v
-1.496906	a l w	-99
-5.135335	a l x
-2.292353	a l y	0.5348087
-4.402468	a l z
-4.902729	b l !
-4.652978	b l '
-4.419976	b l ,
-3.588281	b l .
-3.305013	b l <sp>
-4.487278	b l ?
-1.255009	b l a	0.007128226
-4.601349	b l b
-4.371989	b l c
-3.987436	b l d
-0.1742556	b l e	-0.09546601
-4.599827	b l f
-4.733376	b l g
-5.020642	b l h
-1.103132	b l i	-0.09671589
-5.430517	b l j
-4.228751	b l k
-4.290418	b l l
-4.063196	b l m
-4.795564	b l n
-1.176585	b l o
-4.536664	b l p
-5.584085	b l q
-4.148883	b l r
-3.979285	b l s
-4.016904	b l t
-1.646374	b l u	-0.4874519
-4.24578	b l v
-4.828947	b l w
-5.278808	b l x
-0.9779546	b l y	-0.4222066
-5.289774	b l z
-4.450204	c l !
-3.993573	c l '
-3.691718	c l ,
-3.082699	c l .
-2.576866	c l <sp>
-3.926711	c l ?
-0.6766479	c l a	-0.2884806
-4.374306	c l b
-4.009761	c l c
-3.89391	c l d
-0.5155696	c l e	-0.3103653
-4.496998	c l f
-4.289541	c l g
-4.565086	c l h
-0.8839923	c l i	-0.1494867
-4.65735	c l j
-3.964859	c l k
-3.896035	c l l
-4.33033	c l m
-4.268214	c l n
-0.7237059	c l o
-4.089471	c l p
-5.166485	c l q
-3.450218	c l r
-3.119723	c l s
-3.750101	c l t
-0.8102527	c l u	-0.3788083
-4.545121	c l v
-4.774588	c l w
-4.756652	c l x
-2.409512	c l y
-4.915075	c l z
-0.4969794	d l y	0.1234036
-3.071725	e l !
-3.015982	e l '
-2.287229	e l ,
-1.797337	e l .
-1.119278	e l <sp>
-2.318532	e l ?
-1.439212	e l a	-0.2914794
-3.138063	e l b
-1.845647	e l c
-1.771656	e l d
-1.101021	e l e
-1.238955	e l f
-3.28638	e l g
-3.793512	e l h
-1.068774	e l i	-0.2726625
-4.720109	e l j
-3.743863	e l k
-0.5301476	e l l	0.3246617
-2.703199	e l m
-3.544401	e l n
-1.483238	e l o
-1.051703	e l p	0
-5.14573	e l q
-3.176874	e l r
-1.245249	e l s
-2.075742	e l t
-2.919671	e l u
-1.9629	e l v
-4.195386	e l w
-4.756746	e l x
-0.9674302	e l y	0.05503194
-4.598249	e l z
-0.7912748	f l i	-0.1150374
-1.102013	f l u	-0.0315139
-0.9808173	f l y	0.3804878
-4.147382	g l !
-3.896233	g l '
-3.364764	g l ,
-2.879802	g l .
-2.23342	g l <sp>
-3.438043	g l ?
-0.531958	g l a
-3.721186	g l b
-3.578523	g l c
-3.659493	g l d
-0.5123176	g l e
-3.73787	g l f
-3.933113	g l g
-4.192155	g l h
-0.7552506	g l i
-4.962442	g l j
-4.327614	g l k
-3.763562	g l l
-3.399959	g l m
-4.111118	g l n
-1.033221	g l o
-3.837845	g l p
-4.880453	g l q
-3.818021	g l r
-3.131011	g l s
-3.741277	g l t
-1.931602	g l u
-4.024342	g l v
-4.226758	g l w
-3.897686	g l x
-0.9691187	g l y	0.2060386
-5.147913	g l z
-0.3444439	h l y	-0.0993536
-2.925145	i l !
-3.228517	i l '
-2.424653	i l ,
-1.823148	i l .
-1.220734	i l <sp>
-2.397756	i l ?
-1.41513	i l a	-0.1421868
-2.966934	i l b
-3.736698	i l c
-1.269058	i l d
-0.9087194	i l e
-3.589216	i l f
-3.347237	i l g
-3.98121	i l h
-1.201903	i l i	-0.3528734
-4.716731	i l j
-2.278065	i l k
-0.2827586	i l l	-0.1661707
-2.014499	i l m
-3.959201	i l n
-2.178856	i l o
-4.057966	i l p
-5.269928	i l q
-3.52502	i l r
-1.63712	i l s
-1.81294	i l t	-99
-2.430182	i l u
-2.710529	i l v
-3.234881	i l w
-4.902276	i l x
-1.333227	i l y	0.1632008
-4.630744	i l z
-0.2855863	k l y	0.3428385
-2.352267	l l !
-3.204986	l l '
-1.283092	l l ,
-1.305965	l l .
-0.263919	l l <sp>	-0.01959886
-2.07335	l l ?
-1.92987	l l a
-3.114003	l l b
-3.717111	l l c
-4.086034	l l d
-1.259191	l l e	-0.1665346
-3.695371	l l f
-4.562032	l l g
-4.296923	l l h
-1.490289	l l i
-5.110463	l l j
-4.827236	l l k
-3.748168	l l l
-3.520905	l l m
-3.403577	l l n
-1.382229	l l o
-3.199025	l l p
-5.446807	l l q
-3.82788	l l r
-1.790814	l l s
-3.813998	l l t
-2.570006	l l u
-4.321084	l l v
-3.638118	l l w
-5.454388	l l x
-0.7510922	l l y	-99
-4.762391	l l z
-4.690042	n l !
-4.446406	n l '
-4.089861	n l ,
-3.445821	n l .
-2.90007	n l <sp>
-4.278782	n l ?
-2.150169	n l a
-4.175065	n l b
-3.952577	n l c
-3.573796	n l d
-1.276539	n l e
-4.41541	n l f
-4.158083	n l g
-4.500767	n l h
-1.00027	n l i
-4.860823	n l j
-4.525183	n l k
-3.917712	n l l
-3.860862	n l m
-4.247631	n l n
-1.08911	n l o
-3.728198	n l p
-5.315151	n l q
-4.323372	n l r
-3.640974	n l s
-3.708221	n l t
-2.63818	n l u
-3.830117	n l v
-4.710812	n l w
-5.318765	n l x
-0.1233619	n l y	-0.5921834
-4.754827	n l z
-2.260607	o l !
-2.903447	o l '
-1.955495	o l ,
-1.373388	o l .
-1.108234	o l <sp>	0.007244026
-2.031894	o l ?
-1.611746	o l a
-2.782748	o l b
-3.159528	o l c
-0.6991403	o l d
-1.044661	o l e
-2.288502	o l f
-3.297584	o l g
-3.972656	o l h
-1.046315	o l i
-4.629263	o l j
-1.855931	o l k
-0.7989346	o l l	0.06511974
-2.912292	o l m
-2.94336	o l n
-1.046836	o l o
-2.883579	o l p
-5.144143	o l q
-3.778559	o l r
-1.574319	o l s	-0.2354407
-2.277055	o l t
-1.073022	o l u	-0.5394822
-1.299727	o l v
-3.712228	o l w
-4.709896	o l x
-2.174797	o l y	0.4261891
-4.108602	o l z
-4.709783	p l !
-4.381598	p l '
-3.927663	p l ,
-3.258698	p l .
-2.848733	p l <sp>
-4.146328	p l ?
-0.5156788	p l a	-1.289455
-4.959373	p l b
-3.74659	p l c
-4.371615	p l d
-0.2896295	p l e	-0.05473199
-4.833678	p l f
-5.089449	p l g
-5.008698	p l h
-1.098371	p l i	-0.4310531
-5.653261	p l j
-4.959905	p l k
-4.009516	p l l
-4.228136	p l m
-4.565652	p l n
-1.489902	p l o
-4.499227	p l p
-5.353237	p l q
-4.513715	p l r
-2.659138	p l s
-4.368014	p l t
-1.74147	p l u
-5.131145	p l v
-5.054284	p l w
-5.084538	p l x
-1.336881	p l y	0.02724409
-3.391026	p l z
-0.5231145	r l y	0.07986283
-0.6484275	s l y	0.2345392
-0.3119083	t l y	0.1149117
-1.554006	u l .	-99
-1.217434	u l a	-1.003057
-0.2068995	u l d	-0.2187659
-1.187365	u l l	-0.1232396
-2.212771	u l o	-1.134165
-2.543839	u l s	0.1077809
-1.057459	u l t	0.007850891
-2.251788	u l y	-0.08820169
-0.2932703	w l e	-1.020411
-0.420826	<s> m a	0.05039026
-1.611874	<s> m r
-3.398784	<s> m t	-99
-0.5986828	<s> m y
-4.570292	<sp> m !
-4.42004	<sp> m '
-4.403319	<sp> m ,
-3.596716	<sp> m .
-3.358812	<sp> m <sp>
-4.260139	<sp> m ?
-0.6151056	<sp> m a	-0.00741311
-3.636455	<sp> m b
-2.949707	<sp> m c
-3.627061	<sp> m d
-0.6057832	<sp> m e	-0.013331
-4.003784	<sp> m f
-3.820687	<sp> m g
-4.046045	<sp> m h
-1.035173	<sp> m i	0.01012163
-4.394722	<sp> m j
-3.903092	<sp> m k
-3.617389	<sp> m l
-3.273391	<sp> m m
-3.831862	<sp> m n
-0.739859	<sp> m o	0.008195838
-3.417666	<sp> m p
-4.535987	<sp> m q
-2.200793	<sp> m r
-2.762932	<sp> m s
-3.304433	<sp> m t	0
-1.108302	<sp> m u	-0.2768726
-3.841259	<sp> m v
-4.233278	<sp> m w
-4.171552	<sp> m x
-0.840818	<sp> m y	-0.03648738
-4.947656	<sp> m z
-2.386989	a m !
-2.753445	a m '
-1.912375	a m ,
-1.408504	a m .
-0.6402512	a m <sp>	0.03274872
-2.018573	a m ?
-1.360717	a m a
-1.745642	a m b
-3.474343	a m c
-3.183609	a m d
-0.4077408	a m e	-0.1365988
-3.754113	a m f
-4.013942	a m g
-4.018423	a m h
-1.135698	a m i	-0.3561656
-4.292008	a m j
-4.238083	a m k
-2.760472	a m l
-1.655262	a m m
-1.885664	a m n
-1.592434	a m o
-1.082245	a m p
-4.729748	a m q
-3.620046	a m r
-1.610748	a m s
-3.317715	a m t	-99
-2.568887	a m u
-4.371381	a m v
-3.156035	a m w
-4.725662	a m x
-2.512715	a m y
-3.898227	a m z
-0.2284241	d m i	-99
-2.167925	e m !
-3.26224	e m '
-1.664733	e m ,
-0.9653569	e m .	0
-0.6409566	e m <sp>
-1.527043	e m ?
-1.154381	e m a
-1.083123	e m b	0.006182114
-3.772585	e m c
-3.818902	e m d
-0.7026819	e m e	-0.2763707
-3.987944	e m f
-4.44805	e m g
-4.352864	e m h
-1.551808	e m i	0.005394778
-4.725853	e m j
-4.60151	e m k
-3.446504	e m l
-2.528883	e m m
-3.164867	e m n
-1.18368	e m o
-1.289531	e m p	-0.1463669
-5.059937	e m q
-3.85966	e m r
-1.011548	e m s
-3.480126	e m t
-2.828824	e m u
-4.370771	e m v
-4.349004	e m w
-5.034776	e m x
-2.343689	e m y
-4.683687	e m z
-1.09124	i m a	0.009465597
-0.4051375	i m e	-0.1563399
-1.166128	i m i	-0.07514554
-0.6949433	i m p	-0.006721653
-0.9179077	m m a	-0.07266199
-2.737884	o m !
-2.870263	o m '
-2.229536	o m ,
-1.734937	o m .
-0.7926931	o m <sp>	-0.0896688
-2.057399	o m ?
-1.558106	o m a	-0.06685778
-2.098442	o m b
-3.794935	o m c
-4.213643	o m d
-0.3080264	o m e	-0.2771559
-2.201167	o m f	-0.586418
-3.658907	o m g
-4.538862	o m h
-1.334645	o m i
-4.861499	o m j
-4.805602	o m k
-3.218154	o m l
-1.119848	o m m
-3.176295	o m n
-1.539418	o m o	-0.491487
-0.9701103	o m p	-0.07679464
-4.958146	o m q
-3.712032	o m r
-2.236721	o m s
-3.737413	o m t
-3.852856	o m u
-4.564613	o m v
-4.197387	o m w
-4.898301	o m x
-2.645242	o m y
-4.955901	o m z
-0.7603594	r m <sp>	-0.002715748
-1.137189	r m e	-0.1533081
-0.9327393	r m i	0.0199328
-2.802342	r m t	-99
-0.377104	s m a	-0.07236117
-0.6222574	u m e	-0.2863122
-1.107211	u m m	-0.04941508
-1.400726	<s> n i	-0.7613482
-0.08404148	<s> n o	-0.03439057
-1.235353	<sp> n a	-0.5318395
-0.549445	<sp> n e	-0.03661272
-1.273593	<sp> n i	-0.2423922
-0.2440908	<sp> n o	-0.1425622
-3.205653	<sp> n t	0
-0.6973935	a n <sp>	0.05704994
-1.509302	a n c	-0.3134727
-0.5040502	a n d	-0.3868334
-1.822656	a n i	0.04268726
-1.325693	a n k	-0.003535556
-1.73389	a n n	0.02594035
-1.504384	a n s	-0.0252975
-1.014819	a n t	0.02104698
-2.542732	a n u	-0.2614838
-0.979159	a n y	-0.005512338
-0.5909312	b n a	-99
-0.5528436	e n <sp>	0.02731033
-2.069273	e n a	-0.07417947
-1.198932	e n c	-0.1798616
-1.004674	e n d	-0.02904885
-1.388154	e n e	-0.1910289
-2.066168	e n j	-0.8060638
-1.396252	e n s	0
-0.5250825	e n t	0.05845037
-0.7353466	g n i	-99
-0.4620198	h n i	-0.3290103
-1.317833	h n n	-1.170332
-0.7726183	i n <sp>	-0.1414456
-1.802165	i n a	-0.02005973
-1.724449	i n c	-0.07720336
-1.303334	i n d	0.1477853
-1.312051	i n e	-0.103835
-1.920286	i n f	0.07488725
-0.3406938	i n g	-0.09530568
-1.687696	i n i	-0.1156929
-1.197936	i n k	-0.01342077
-2.463311	i n l	-0.3925133
-2.757485	i n p	-0.5435953
-1.208611	i n t	-0.05580487
-0.02501004	k n o	-1.748085
-0.6937749	n n i	0
-1.026033	n n y	0.06580535
-0.9214231	o n '	-0.1521972
-1.170036	o n .	0
-0.6035444	o n <sp>	-0.04790985
-1.609781	o n a	-0.5611181
-0.7472467	o n e	-0.2711774
-1.861082	o n i	-0.2479215
-1.45855	o n l	-0.4041958
-1.0673	o n s	0.03152844
-2.507918	o n y	0.126243
-0.9581437	r n a	-0.09733359
-0.6909811	r n e	-0.2348341
-0.0591548	s n '	-1.620297
-0.4403118	u n d	0.3138037
-1.696602	u n f	-0.4639122
-1.309893	u n n	-0.5605152
-0.8552284	u n t	-0.004829448
-0.5950052	<s> o h
-0.8644086	<s> o k
-4.427104	<sp> o !
-3.248527	<sp> o '	-0.01247146
-4.322908	<sp> o ,
-3.735899	<sp> o .
-3.355857	<sp> o <sp>
-4.589685	<sp> o ?
-3.318298	<sp> o a
-1.843281	<sp> o b
-2.364346	<sp> o c
-2.741857	<sp> o d
-3.815196	<sp> o e
-0.4723621	<sp> o f	-0.137127
-3.782597	<sp> o g
-1.978744	<sp> o h
-2.891174	<sp> o i
-4.419457	<sp> o j
-1.753683	<sp> o k
-1.922897	<sp> o l
-3.04366	<sp> o m
-0.5546242	<sp> o n	-0.7622377
-3.159566	<sp> o o
-1.465495	<sp> o p	0
-5.355677	<sp> o q
-1.055222	<sp> o r	-0.6383649
-2.751918	<sp> o s
-1.389032	<sp> o t
-0.9584134	<sp> o u	-0.4414703
-1.543349	<sp> o v
-1.841489	<sp> o w
-3.494204	<sp> o x
-3.85971	<sp> o y
-3.879516	<sp> o z
-3.835538	b o !
-3.935029	b o '
-3.445662	b o ,
-2.989837	b o .
-2.595463	b o <sp>
-3.542758	b o ?
-1.436973	b o a
-2.02046	b o b
-3.566195	b o c
-1.064833	b o d	-1.317506
-3.384642	b o e
-3.680168	b o f
-2.741058	b o g
-3.681312	b o h
-2.478999	b o i
-4.376583	b o j
-3.666139	b o k
-1.891477	b o l
-2.403405	b o m
-1.8509	b o n
-1.048843	b o o
-3.439923	b o p
-4.993576	b o q
-1.314407	b o r
-1.791463	b o s
-0.9653299	b o t	-0.488354
-0.3294543	b o u	-1.146427
-1.637613	b o v
-2.080709	b o w
-1.535758	b o x
-1.46538	b o y	0.04935606
-3.720191	b o z
-3.859133	c o !
-3.884627	c o '
-3.385092	c o ,
-2.838434	c o .
-2.564883	c o <sp>
-3.342399	c o ?
-2.235793	c o a
-3.025857	c o b
-2.604397	c o c
-1.600632	c o d
-3.337231	c o e
-2.077344	c o f
-2.274231	c o g
-2.688154	c o h
-2.542488	c o i
-4.916647	c o j
-2.994178	c o k
-1.284823	c o l
-0.5121677	c o m	-0.07356988
-0.6132849	c o n
-1.561611	c o o
-1.773799	c o p
-4.585991	c o q
-1.24555	c o r
-1.904653	c o s
-2.415839	c o t
-0.6989489	c o u	-0.466459
-1.76822	c o v	-1.383915
-2.678784	c o w
-3.778708	c o x
-3.767655	c o y
-3.442138	c o z
-2.750039	d o !
-3.843999	d o '
-2.247566	d o ,
-1.658983	d o .
-0.4899259	d o <sp>	-0.01130571
-1.9518	d o ?
-3.344126	d o a
-3.037784	d o b
-1.528123	d o c
-3.093926	d o d
-0.8935222	d o e	-1.350306
-3.856048	d o f
-1.982668	d o g
-3.73943	d o h
-1.396057	d o i	-1.568989
-4.354151	d o j
-3.88785	d o k
-2.189594	d o l
-1.841793	d o m
-0.5235485	d o n	-1.145016
-2.01623	d o o
-2.650836	d o p
-5.260423	d o q
-2.238564	d o r
-2.676038	d o s
-2.778386	d o t
-1.862775	d o u
-3.522203	d o v
-1.172971	d o w
-3.27261	d o x
-3.812926	d o y
-2.877034	d o z
-0.2609003	e o p	0
-3.629883	f o !
-4.349409	f o '
-3.250895	f o ,
-2.592525	f o .
-2.22265	f o <sp>
-3.384284	f o ?
-3.434223	f o a
-3.881028	f o b
-2.090366	f o c	-99
-3.932255	f o d
-3.826336	f o e
-4.424089	f o f
-3.231462	f o g
-4.498923	f o h
-3.580745	f o i
-5.489519	f o j
-4.476553	f o k
-1.41956	f o l
-3.897647	f o m
-2.267617	f o n
-1.512127	f o o
-4.023194	f o p
-5.126785	f o q
-0.06498238	f o r	-0.551766
-3.061904	f o s
-3.822791	f o t
-1.381891	f o u
-4.492735	f o v
-3.603037	f o w
-2.694874	f o x
-4.247855	f o y
-4.980424	f o z
-2.256896	g o !
-3.639904	g o '
-2.083369	g o ,
-1.427891	g o .
-0.7548552	g o <sp>	-0.07829976
-2.087384	g o ?
-1.873588	g o a
-3.425475	g o b
-4.018609	g o c
-1.619065	g o d
-1.750782	g o e
-3.709569	g o f
-3.143325	g o g
-4.138911	g o h
-0.7751359	g o i	-99
-4.680833	g o j
-4.121054	g o k
-1.989957	g o l
-3.402964	g o m
-1.310681	g o n
-0.56185	g o o
-3.133167	g o p
-5.227489	g o q
-1.742791	g o r	-0.1814839
-2.348682	g o s
-0.7823411	g o t	0
-2.933678	g o u
-1.800782	g o v
-3.12787	g o w
-4.461484	g o x
-3.944816	g o y
-4.450825	g o z
-3.585479	h o !
-2.116626	h o '
-3.12693	h o ,
-2.769099	h o .
-1.188056	h o <sp>
-2.818219	h o ?
-2.727892	h o a
-2.77535	h o b
-2.302306	h o c
-1.92467	h o d
-2.183672	h o e
-3.820258	h o f
-3.163746	h o g
-4.118503	h o h
-1.975054	h o i
-4.779486	h o j
-3.343427	h o k
-1.341743	h o l	0.05251189
-1.421074	h o m
-1.394594	h o n
-1.381257	h o o
-1.223465	h o p
-5.157115	h o q
-1.457738	h o r	-0.177469
-1.206945	h o s	-0.5352998
-1.490535	h o t	0
-0.5755616	h o u	-0.5148461
-3.054634	h o v
-0.5796961	h o w	-0.3914756
-4.823383	h o x
-4.084121	h o y
-4.751319	h o z
-3.563953	i o !
-3.576761	i o '
-2.852268	i o ,
-2.357991	i o .
-1.943382	i o <sp>
-2.896886	i o ?
-3.639667	i o a
-4.093207	i o b
-3.370031	i o c
-2.217103	i o d
-4.143825	i o e
-4.227509	i o f
-3.133142	i o g	-0.9258761
-4.251245	i o h
-4.04771	i o i
-4.959976	i o j
-4.371904	i o k
-2.082181	i o l
-2.986082	i o m
-0.06619258	i o n	-0.3046893
-4.143282	i o o
-3.457358	i o p
-5.416399	i o q
-1.722651	i o r
-2.364358	i o s
-2.220533	i o t	0
-1.126724	i o u	-1.497677
-3.724562	i o v
-3.346521	i o w
-3.872199	i o x
-4.764596	i o y
-4.866586	i o z
-1.065647	j o h	-1.521494
-0.9612937	j o i	-99
-1.228144	j o k	-0.0175269
-2.363547	j o l	-0.2448801
-0.7354807	j o y	-0.1850916
-2.79807	l o !
-3.853903	l o '
-2.184891	l o ,
-2.39049	l o .
-2.085673	l o <sp>
-2.847875	l o ?
-1.417312	l o a
-2.121041	l o b
-1.288097	l o c
-2.673988	l o d
-3.32261	l o e
-3.480633	l o f
-1.196473	l o g	-0.1729244
-3.738314	l o h
-2.722145	l o i
-4.477887	l o j
-3.288257	l o k
-2.753426	l o l
-2.797443	l o m
-0.9472074	l o n
-0.6504031	l o o	-0.7929886
-1.678582	l o p
-3.416459	l o q
-1.495768	l o r
-1.117038	l o s	-0.2438627
-1.036223	l o t
-1.627346	l o u	-0.2133306
-1.01143	l o v	-0.9957821
-0.9285074	l o w
-4.057349	l o x
-1.962718	l o y
-4.143406	l o z
-3.644893	m o !
-3.756531	m o '
-2.991696	m o ,
-2.488849	m o .
-2.273023	m o <sp>
-3.213895	m o ?
-3.473507	m o a
-2.092296	m o b
-2.252601	m o c
-1.229822	m o d
-3.413284	m o e
-3.780072	m o f
-2.952155	m o g
-3.528924	m o h
-2.826478	m o i
-3.798551	m o j
-2.027518	m o k
-2.466432	m o l
-1.330087	m o m	0.01491337
-0.8057981	m o n
-1.840719	m o o
-3.064321	m o p
-4.555363	m o q
-0.415894	m o r	-0.4658732
-0.9702072	m o s	-1.100731
-1.253149	m o t	-0.1567535
-1.438129	m o u	-0.2350408
-1.016237	m o v
-3.271483	m o w
-4.175259	m o x
-3.878047	m o y
-2.879408	m o z
-2.667722	n o !
-3.885325	n o '
-1.448893	n o ,	0.1073575
-1.855403	n o .
-0.9553968	n o <sp>
-2.670916	n o ?
-3.767523	n o a
-2.206471	n o b
-2.544769	n o c
-2.32033	n o d	-0.4169395
-3.542195	n o e
-3.537199	n o f
-3.409166	n o g
-4.253426	n o h
-2.5409	n o i
-4.782347	n o j
-3.550926	n o k
-2.243915	n o l
-2.249075	n o m	-0.007841196
-1.907112	n o n
-2.26852	n o o
-2.515431	n o p
-5.415028	n o q
-1.586075	n o r	-0.1640671
-2.423476	n o s
-0.3844612	n o t	-0.2549204
-1.569907	n o u	-0.7066678
-2.415322	n o v
-0.5100995	n o w	-0.06020018
-3.738856	n o x
-2.588252	n o y
-4.26797	n o z
-2.034655	o o !
-3.917555	o o '
-2.094445	o o ,
-1.236477	o o .
-1.083283	o o <sp>
-2.132121	o o ?
-4.368295	o o a
-3.072047	o o b
-3.458624	o o c
-0.5735413	o o d
-3.711955	o o e
-2.103436	o o f
-2.089969	o o g
-2.704908	o o h
-3.817993	o o i
-4.521284	o o j
-0.5571699	o o k	-0.1614527
-1.125921	o o l	-0.1669194
-1.399399	o o m
-1.298481	o o n	-0.1758085
-2.496006	o o o
-1.872089	o o p
-4.984402	o o q
-1.507226	o o r
-1.706517	o o s
-1.433348	o o t
-4.004113	o o u
-3.166043	o o v
-4.041855	o o w
-4.304094	o o x
-4.41354	o o y
-3.174751	o o z
-3.681685	p o !
-3.803497	p o '
-3.360113	p o ,
-2.741446	p o .
-2.519085	p o <sp>
-3.354194	p o ?
-3.348658	p o a
-4.052013	p o b
-2.244976	p o c
-2.417824	p o d
-2.319481	p o e
-3.951705	p o f
-3.149174	p o g
-4.085359	p o h
-0.8881	p o i
-4.405061	p o j
-2.048683	p o k
-1.053538	p o l
-3.393765	p o m
-1.080533	p o n	-0.2805057
-1.528631	p o o
-1.616581	p o p
-4.978548	p o q
-0.6324208	p o r	-1.443268
-0.5291311	p o s	-0.2065222
-1.445651	p o t
-2.040386	p o u
-2.883984	p o v
-1.413623	p o w
-3.549395	p o x
-4.065211	p o y
-4.039295	p o z
-3.377442	r o !
-3.530035	r o '
-3.003841	r o ,
-2.422669	r o .
-2.104524	r o <sp>
-3.104236	r o ?
-1.635979	r o a
-0.9617303	r o b	-0.06719258
-1.497132	r o c
-1.554006	r o d
-3.195669	r o e
-1.800184	r o f
-1.571996	r o g
-3.054926	r o h
-2.631315	r o i
-1.896743	r o j
-1.927136	r o k
-1.484957	r o l
-0.7609839	r o m	-0.6309627
-1.095197	r o n	-0.01908761
-1.378138	r o o
-1.294678	r o p	-0.07444368
-4.18588	r o q
-1.700614	r o r
-1.575371	r o s
-1.476021	r o t
-0.857276	r o u	-0.2085014
-1.366778	r o v	0.3233368
-1.143318	r o w	0
-2.482886	r o x
-2.261502	r o y
-2.921116	r o z
-3.134988	s o !
-3.971462	s o '
-1.418711	s o ,
-1.816333	s o .
-0.5385124	s o <sp>	-0.06702837
-2.502843	s o ?
-2.724159	s o a
-3.194631	s o b
-1.848101	s o c
-2.647462	s o d
-3.090425	s o e
-1.830421	s o f
-3.866478	s o g
-3.903558	s o h
-3.274026	s o i
-4.624107	s o j
-4.226342	s o k
-1.301309	s o l	0
-0.5123442	s o m	-2.109522
-1.001244	s o n	-0.08388305
-1.594895	s o o
-2.480481	s o p
-5.189493	s o q
-1.139688	s o r	-0.06088988
-3.504476	s o s
-3.296955	s o t	0
-1.238684	s o u	-0.01420348
-3.431982	s o v
-3.580797	s o w
-4.032134	s o x
-3.627601	s o y
-4.563825	s o z
-3.305252	t o !
-4.004699	t o '
-2.747742	t o ,
-2.06917	t o .
-0.1453057	t o <sp>	-0.09584505
-2.553414	t o ?
-3.063365	t o a
-3.159837	t o b
-2.397797	t o c
-1.666204	t o d	-1.332669
-2.942966	t o e
-3.642921	t o f
-1.942476	t o g
-4.132424	t o h
-3.026687	t o i
-4.634756	t o j
-2.881656	t o k
-1.991452	t o l
-1.58172	t o m	-0.2248867
-1.673145	t o n	-0.01492876
-1.178399	t o o
-1.632247	t o p
-5.057992	t o q
-1.249616	t o r	0.008089925
-2.529599	t o s
-2.246866	t o t	-0.9188101
-2.083691	t o u
-3.350157	t o v
-2.192248	t o w
-3.688621	t o x
-3.050387	t o y
-4.892931	t o z
-0.6090496	u o u	-1.743215
-0.6978721	v o i	-0.2507291
-0.6886374	v o r	-0.2926408
-3.585885	w o !
-4.349902	w o '
-2.684052	w o ,
-2.156613	w o .
-1.070223	w o <sp>
-2.791454	w o ?
-4.198253	w o a
-3.682241	w o b
-4.410185	w o c
-3.897571	w o d
-3.575306	w o e
-3.834932	w o f
-4.176247	w o g
-4.407134	w o h
-4.384276	w o i
-4.587728	w o j
-2.713259	w o k
-2.741764	w o l
-1.573233	w o m
-0.9869848	w o n
-1.991474	w o o
-4.016772	w o p
-5.881755	w o q
-0.363965	w o r	-0.3718557
-3.946982	w o s
-3.532348	w o t
-0.5102515	w o u	-2.112942
-4.078801	w o v
-1.7652	w o w
-4.888346	w o x
-4.45405	w o y
-4.477394	w o z
-4.079315	y o !
-4.769714	y o '
-3.744137	y o ,
-3.463963	y o .
-3.246561	y o <sp>
-4.104522	y o ?
-4.869121	y o a
-4.417123	y o b
-4.86776	y o c
-4.380183	y o d
-4.996858	y o e
-3.573011	y o f
-3.233019	y o g
-4.607607	y o h
-4.595088	y o i
-5.364565	y o j
-4.164237	y o k
-4.018666	y o l
-4.68167	y o m
-1.462339	y o n	-1.046231
-4.11338	y o o
-4.43483	y o p
-5.943272	y o q
-2.655211	y o r
-4.079694	y o s
-3.787521	y o t
-0.01757505	y o u	-0.478281
-4.344177	y o v
-4.456101	y o w
-5.786793	y o x
-4.491962	y o y
-5.312105	y o z
-1.113999	<s> p o	-0.0039124
-0.7573798	<sp> p a	-0.02641863
-1.508858	<sp> p h	0.02821071
-0.8866928	<sp> p l	-0.2455373
-0.8654201	<sp> p o	-0.02919578
-0.5578233	<sp> p r	-0.07439514
-1.216616	<sp> p u	0.07201353
-1.327928	a p h	-0.02662931
-1.628353	a p i	-0.2359627
-0.2511706	a p p	-0.04134373
-0.6524019	e p <sp>	-0.01471275
-0.9906484	e p e	-0.05764455
-1.086464	e p l	-0.4804007
-1.228486	i p e	-0.07612474
-0.9058127	m p a	-0.2360194
-0.426911	m p l	0.08351811
-0.8077331	m p o	-0.4083437
-1.292198	m p t	-0.1327105
-0.3251317	n p u	-0.9599712
-0.5200824	o p e	0.01322576
-0.6535871	o p l	-2.117841
-1.257129	o p t	-0.7164585
-0.9237646	p p l	-0.5670992
-0.6706334	p p o	-0.08353767
-0.9273685	p p r	-0.1623114
-0.982802	p p y	-0.137778
-0.3279897	s p e	-0.3340985
-0.7166578	s p o	-0.3038013
-1.433818	s p r	-0.1876709
-0.7715345	u p p	-0.9459561
-0.2742683	x p e	-0.1374264
-0.5468808	x p l	-99
-1.556334	y p a	-99
-0.9003844	y p i	-99
-1.047483	y p t	0
-0.01030895	<sp> q u	-0.01333388
-0.004260493	e q u	-0.03912885
-0.0008721972	' r e	-2.328545
-0.2286455	<s> r e	-0.01769696
-1.153823	<sp> r a	-0.033032
-0.1983291	<sp> r e	-0.1069989
-0.8241081	<sp> r i	-99
-1.106762	<sp> r o	-0.01370502
-3.052829	<sp> r t	0
-1.240923	<sp> r u	0.01801515
-1.1004	a r <sp>	0.001936897
-1.04723	a r d	-0.005798346
-0.4522576	a r e	-0.6229069
-1.59991	a r g	-0.07649392
-1.407501	a r i	-0.02016719
-1.613617	a r l	-0.2231251
-1.485398	a r r	0.06380662
-1.510674	a r s	0.04069265
-0.9460778	a r t	0.02802053
-1.519519	a r y	-0.02586455
-0.5949116	b r i	0.03017928
-0.7895786	c r a	-0.03234151
-0.4190827	c r e	-0.3556766
-0.6256354	c r i	-99
-1.363154	c r y	-0.1826908
-1.561758	d r y	0.005945385
-1.161457	e r .	-99
-0.5648762	e r <sp>	-0.0210136
-1.56515	e r a	-0.1483623
-0.6124988	e r e	-0.1498059
-1.849884	e r f	-0.01302349
-1.453755	e r i	-0.1220317
-2.366014	e r l	-0.1182166
-1.72245	e r n	-0.06731677
-1.864378	e r r	-0.1006177
-1.018252	e r s	-0.003412114
-1.706662	e r t	-99
-1.693366	e r v	0.002294578
-1.137626	e r y	-0.2238564
-1.00303	f r a	-0.07381868
-0.7029909	f r i	-0.5942459
-0.2867284	f r o	-1.01528
-0.4990739	g r a	-0.0829525
-0.3195796	g r e	-0.1723922
-0.8412525	g r o	-0.3786374
-0.3571134	h r o	-0.0497802
-1.654429	i r c	-0.4135331
-1.398306	i r d	0.002757862
-0.6335768	i r e	0.006951389
-1.122852	i r l	0.09150724
-0.7079043	i r s	0
-1.29471	i r t	-99
-2.650386	k r t	-99
-0.09394416	l r e	-2.280125
-0.8128282	l r i	-99
-0.4165698	o r <sp>	-0.0584875
-1.950213	o r a	-0.02624134
-1.372821	o r d	-0.1283587
-0.9202791	o r e	-0.2729923
-1.563967	o r i	-0.105802
-1.090223	o r k	-0.04177149
-1.367254	o r m	0.0004831085
-1.211776	o r r	-0.0008758754
-1.096447	o r t	-0.04347502
-1.480698	p r a	0.01023819
-0.5270053	p r e	-0.1982974
-0.8716921	p r i	-0.02298306
-0.2755907	p r o	-0.2252942
-3.991671	p r t	-99
-0.6529046	r r e	-0.1773868
-0.7385247	r r i	-0.0756296
-0.5028718	r r y	0.01993953
-0.5304729	t r a	0
-1.008362	t r e	-0.1382816
-0.7672542	t r i	-0.04227723
-3.970898	t r t	-99
-0.8483339	t r u	0.02592364
-0.7578315	t r y	0.01864898
-0.3545046	u r <sp>	-0.006599907
-1.492367	u r a	-0.09260835
-1.573125	u r c	-99
-0.7114927	u r e	-0.07190805
-2.144699	u r g	-0.4516853
-2.242683	u r l	0.054075
-1.570998	u r r	-0.3370025
-1.550668	u r t	-99
-1.435425	w r a	-99
-0.3430437	w r i	-99
-0.2984449	y r i	-99
-0.004842191	' s <sp>	-0.02367129
-1.409088	<s> s a
-1.050385	<s> s e	-0.01680673
-0.7777301	<s> s h
-1.330276	<s> s i	-0.06930032
-2.120118	<s> s m
-0.3222689	<s> s o	0.0467913
-1.728255	<s> s p
-1.253382	<s> s u	0.006400007
-1.046225	<sp> s a	-0.0464468
-1.49714	<sp> s c	-0.01277092
-0.8133627	<sp> s e	-0.5531861
-0.9498465	<sp> s h	-0.272556
-1.187105	<sp> s i	-0.07566664
-1.875369	<sp> s l	0.1087957
-0.6786153	<sp> s o	-0.1321096
-1.363368	<sp> s p	-0.0824362
-3.202019	<sp> s s	0
-0.8442786	<sp> s t	-0.8741384
-1.047156	<sp> s u	-0.05004655
-2.032461	<sp> s w	0.2339762
-0.3440081	a s <sp>	-0.01092634
-0.8745435	a s e	-0.1374017
-1.511143	a s i	-0.1029749
-1.089599	a s s	-0.04252246
-0.9380834	a s t	-0.1252504
-2.04451	a s u	-0.7085145
-1.218024	b s c	-99
-0.8109621	b s i	-99
-0.1870364	d s <sp>	-0.02247122
-1.238595	e s ,	0.009381555
-0.5177457	e s <sp>	-0.04722567
-1.13634	e s e	-0.04862176
-1.66041	e s i	-0.1264063
-1.616171	e s p	-0.2260398
-0.8261189	e s s	-0.04674974
-0.7899392	e s t	0.02899537
-0.1814871	i s <sp>	-0.03859513
-1.831328	i s c	-0.1049676
-1.51713	i s e	-0.01155235
-1.432929	i s h	0.01095306
-1.726969	i s i	-0.1628255
-1.686	i s n	-0.5510185
-1.113512	i s t	0
-0.5232462	l s <sp>	0.002653084
-0.5132784	l s o	-0.5688865
-0.2211585	m s <sp>	-0.03711034
-1.038002	n s e	0
-1.907932	n s f	-0.2810382
-1.724309	n s h	-0.7883255
-0.8978601	n s i	-99
-0.9328759	n s t	0.02972213
-1.52301	n s u	-0.09050952
-0.4554599	o s e	-0.420626
-1.136748	o s i	0
-0.8380759	o s s	-0.2894962
-0.514293	o s t	-0.302502
-0.8349142	r s e	-0.0003271263
-1.317897	r s i	-99
-1.218493	r s o	-1.410961
-0.6801426	r s t	-0.123729
-0.5186854	s s <sp>	-0.0087617
-1.199108	s s a	-0.1693551
-0.9281917	s s e	-0.02329866
-0.644102	s s i	-0.1208657
-0.196332	t s <sp>	-0.02739411
-1.549023	t s i	-99
-0.5657331	u s e	-0.3675897
-1.799068	u s h	0.03751029
-1.089393	u s i	-0.4465042
-1.730296	u s l	-1.207596
-0.4410925	u s t	-0.6728081
-1.803174	u s u	-1.976344
-0.3017191	y s <sp>	0.004517414
-1.297175	y s i	-99
-0.8563374	y s t	-0.9813753
-2.150265	' t ,
-1.560045	' t .
-0.01776097	' t <sp>	0.0192913
-2.489736	. t !
-2.847973	. t '
-2.225961	. t ,
-0.5287326	. t .
-1.34493	. t <sp>
-2.051346	. t ?
-1.334822	. t a
-2.585341	. t b
-2.030606	. t c
-2.79813	. t d
-1.238026	. t e
-2.316299	. t f
-2.409337	. t g
-0.8250628	. t h
-1.548913	. t i
-3.124628	. t j
-2.404927	. t k
-2.203946	. t l
-2.305848	. t m
-2.903336	. t n
-1.232053	. t o
-2.429706	. t p
-3.32257	. t q
-1.4642	. t r
-1.930408	. t s
-1.905902	. t t
-2.083703	. t u
-1.8511	. t v
-2.18988	. t w
-0.8089428	. t x
-1.938768	. t y
-2.926106	. t z
-1.728524	<s> t a	-0.3813922
-0.05400652	<s> t h	-0.007789148
-1.385555	<s> t o	0.009011759
-1.750597	<s> t r	-0.05445538
-2.131602	<s> t w
-2.754164	<s> t y	-0.5353132
-4.969697	<sp> t !
-4.590296	<sp> t '
-4.756704	<sp> t ,
-4.154746	<sp> t .
-3.67958	<sp> t <sp>
-4.770524	<sp> t ?
-1.50234	<sp> t a	-0.1929954
-4.195127	<sp> t b
-3.921711	<sp> t c
-4.213048	<sp> t d
-1.541461	<sp> t e	-0.01983889
-4.294042	<sp> t f
-4.773081	<sp> t g
-0.2161407	<sp> t h	-0.3996347
-1.568311	<sp> t i	-0.5724967
-4.991072	<sp> t j
-4.535775	<sp> t k
-4.099231	<sp> t l
-4.287149	<sp> t m
-4.609893	<sp> t n
-0.6005512	<sp> t o	-0.1558497
-4.431029	<sp> t p
-5.481485	<sp> t q
-1.469874	<sp> t r	-0.07213579
-3.982801	<sp> t s
-3.97662	<sp> t t
-2.313711	<sp> t u
-2.992424	<sp> t v
-2.04294	<sp> t w	0.05808233
-4.300801	<sp> t x
-2.400015	<sp> t y	-0.9697898
-5.045462	<sp> t z
-2.328364	a t !
-1.122085	a t '
-1.969727	a t ,
-1.441602	a t .
-0.3295618	a t <sp>	-0.04352017
-1.750645	a t ?	0
-1.890482	a t a	-0.2383162
-4.226862	a t b
-1.732024	a t c	-1.654866
-4.585257	a t d
-0.8637258	a t e	-0.2069106
-2.898901	a t f
-4.808308	a t g
-1.590379	a t h	-0.07789953
-0.9028361	a t i	-0.4712332
-4.83143	a t j
-4.385087	a t k
-2.846498	a t l
-2.824652	a t m
-4.132816	a t n
-2.076982	a t o
-4.367274	a t p
-5.77809	a t q
-2.725815	a t r
-2.153975	a t s
-1.517405	a t t	0
-1.814269	a t u	-0.3836624
-4.396611	a t v
-4.193262	a t w
-4.748244	a t x
-3.513372	a t y
-4.241027	a t z
-2.421785	b t !
-2.914647	b t '
-1.456195	b t ,
-1.12697	b t .
-0.4773925	b t <sp>
-1.950077	b t ?
-0.9546964	b t a
-3.262331	b t b
-2.503605	b t c
-3.301437	b t d
-1.464276	b t e
-2.076132	b t f
-3.420089	b t g
-2.659684	b t h
-1.376972	b t i
-3.985862	b t j
-3.65755	b t k
-1.135355	b t l
-3.098069	b t m
-3.043351	b t n
-2.135865	b t o
-3.361028	b t p
-3.66149	b t q
-1.531595	b t r
-1.168773	b t s
-2.982752	b t t
-2.13939	b t u
-2.999125	b t v
-0.8508711	b t w
-3.50703	b t x
-2.129308	b t y
-3.827781	b t z
-2.399498	c t !
-3.145799	c t '
-1.656048	c t ,
-1.282799	c t .
-0.7161986	c t <sp>
-1.927714	c t ?
-1.917511	c t a
-4.34749	c t b
-3.912371	c t c
-3.947141	c t d
-1.146462	c t e	-0.001907855
-2.813488	c t f
-4.451864	c t g
-3.983088	c t h
-0.5507977	c t i	-0.2575939
-4.789732	c t j
-4.845907	c t k
-1.170539	c t l
-3.442256	c t m
-3.257072	c t n
-1.128223	c t o
-4.183225	c t p
-5.04859	c t q
-1.901432	c t r
-1.319298	c t s
-4.059541	c t t
-0.8358294	c t u	-2.066444
-3.593927	c t v
-4.365476	c t w
-3.588285	c t x
-3.612078	c t y
-4.986371	c t z
-2.425825	e t !
-1.425065	e t '
-1.971266	e t ,
-1.363311	e t .	0
-0.4508869	e t <sp>	-0.01714844
-1.840283	e t ?
-1.509961	e t a	-0.006293709
-2.868657	e t b
-1.908551	e t c
-3.769078	e t d
-1.257366	e t e
-3.266523	e t f
-4.31021	e t g
-0.8611007	e t h	-0.361311
-1.266281	e t i	-0.01358889
-4.431417	e t j
-4.536944	e t k
-2.983811	e t l
-3.795536	e t m
-3.369826	e t n
-2.539897	e t o
-3.548871	e t p
-4.954775	e t q
-2.045896	e t r
-1.43374	e t s
-0.8324237	e t t
-1.730442	e t u
-4.090293	e t v
-1.692742	e t w
-4.621816	e t x
-2.174535	e t y
-3.824213	e t z
-2.385539	f t !
-2.609255	f t '
-1.773291	f t ,
-1.180881	f t .
-0.6391492	f t <sp>
-1.768644	f t ?
-2.927957	f t a
-2.859712	f t b
-3.205093	f t c
-3.770781	f t d
-0.2868336	f t e	-0.05804011
-3.438528	f t f
-4.071874	f t g
-2.058423	f t h
-1.944897	f t i
-4.498519	f t j
-3.716571	f t k
-2.74835	f t l
-3.501075	f t m
-3.520496	f t n
-2.300313	f t o
-2.125905	f t p
-4.632029	f t q
-3.322577	f t r
-1.622494	f t s
-3.539026	f t t
-3.878259	f t u
-4.031331	f t v
-1.149067	f t w
-4.22146	f t x
-1.902111	f t y
-4.483382	f t z
-3.005764	g t !
-3.087798	g t '
-2.597324	g t ,
-1.824523	g t .
-1.517283	g t <sp>
-2.513289	g t ?
-1.902772	g t a
-3.164258	g t b
-3.053931	g t c
-2.780624	g t d
-2.117758	g t e
-2.85304	g t f
-2.890027	g t g
-0.1967447	g t h
-2.08815	g t i
-4.120228	g t j
-1.868686	g t k
-2.857605	g t l
-2.750402	g t m
-3.091863	g t n
-0.6192654	g t o
-3.138362	g t p
-4.662925	g t q
-2.30822	g t r
-2.296221	g t s
-2.815769	g t t
-2.847885	g t u
-2.906038	g t v
-3.103053	g t w
-3.227901	g t x
-2.850868	g t y
-2.759163	g t z
-1.753589	h t !
-2.601118	h t '
-1.216401	h t ,
-0.8212467	h t .
-0.277519	h t <sp>
-1.070242	h t ?
-2.942404	h t a
-3.864296	h t b
-3.223354	h t c
-4.063493	h t d
-1.451194	h t e
-2.119614	h t f
-4.330248	h t g
-3.083359	h t h
-2.004977	h t i
-4.386938	h t j
-4.66791	h t k
-1.998685	h t l
-1.681821	h t m
-2.843701	h t n
-3.109083	h t o
-4.168769	h t p
-5.32446	h t q
-3.414012	h t r
-1.283014	h t s
-2.07391	h t t
-3.205195	h t u
-4.216503	h t v
-3.010629	h t w
-4.924188	h t x
-2.421277	h t y
-4.790436	h t z
-2.090628	i t !
-0.9093434	i t '	0.07272235
-1.794137	i t ,
-1.149175	i t .
-0.4882461	i t <sp>	-0.07868552
-1.637265	i t ?
-1.85947	i t a	-0.2810373
-4.295651	i t b
-2.118745	i t c
-4.637374	i t d
-1.167839	i t e	-0.1212993
-3.718222	i t f
-4.820734	i t g
-0.7802072	i t h	-0.6547971
-1.263496	i t i	-0.1080841
-4.739765	i t j
-4.696257	i t k
-2.389999	i t l
-3.114304	i t m
-3.010894	i t n
-2.231846	i t o
-3.98269	i t p
-5.734382	i t q
-2.98043	i t r
-1.582008	i t s
-1.490907	i t t
-2.062193	i t u	-0.08555837
-4.503402	i t v
-4.438221	i t w
-5.208639	i t x
-1.365023	i t y
-3.358171	i t z
-2.942604	k t !
-3.001294	k t '
-2.380877	k t ,
-2.147281	k t .
-1.521558	k t <sp>
-2.649926	k t ?
-0.5953463	k t a
-3.104156	k t b
-2.970702	k t c
-3.13645	k t d
-1.785962	k t e
-3.181422	k t f
-3.018991	k t g
-0.8554224	k t h
-1.243569	k t i
-3.976664	k t j
-3.02448	k t k
-2.817942	k t l
-2.567913	k t m
-2.959546	k t n
-0.3932067	k t o
-3.023765	k t p
-3.911162	k t q
-1.303858	k t r
-2.158947	k t s
-3.067054	k t t
-2.226714	k t u
-2.700157	k t v
-2.868302	k t w
-3.172699	k t x
-2.438308	k t y
-3.504277	k t z
-0.8855607	l t h	-0.1231063
-1.299793	l t y	-0.06522018
-2.313936	n t !
-2.709054	n t '
-1.697643	n t ,
-1.084715	n t .
-0.4571383	n t <sp>	0.02555626
-1.737672	n t ?
-1.282693	n t a	-0.04536911
-4.12216	n t b
-3.992815	n t c
-3.802175	n t d
-0.8212824	n t e	-0.04011162
-3.586855	n t f
-4.025334	n t g
-1.772205	n t h	0.2840328
-1.045362	n t i	0.05602205
-4.674917	n t j
-4.791961	n t k
-1.619395	n t l	-99
-2.567838	n t m
-4.110904	n t n
-1.374934	n t o	-0.3052707
-3.642767	n t p
-5.294445	n t q
-1.336641	n t r
-1.075672	n t s	-0.006086331
-3.873611	n t t
-2.201358	n t u	-0.09798546
-4.475524	n t v
-4.179209	n t w
-4.90315	n t x
-2.16305	n t y
-4.185196	n t z
-2.420288	o t !
-3.572182	o t '
-1.964924	o t ,
-1.476279	o t .
-0.2743073	o t <sp>	-0.01920087
-2.069434	o t ?
-1.758812	o t a	-0.3212199
-2.479665	o t b
-2.979666	o t c
-3.731408	o t d
-1.268984	o t e	-0.09554739
-3.778397	o t f
-3.928702	o t g
-0.6179799	o t h	-0.02421221
-1.523449	o t i	0.07651626
-4.544572	o t j
-4.072689	o t k
-2.954889	o t l
-3.747051	o t m
-3.438941	o t n
-1.727985	o t o
-3.473735	o t p
-5.429472	o t q
-3.491912	o t r
-1.756214	o t s
-1.623024	o t t
-3.415982	o t u
-4.456344	o t v
-3.779658	o t w
-5.069231	o t x
-2.897759	o t y
-4.364614	o t z
-2.644743	p t !
-3.283176	p t '
-1.875235	p t ,
-1.322504	p t .
-0.5536073	p t <sp>
-2.000105	p t ?
-1.320817	p t a
-3.934978	p t b
-2.725274	p t c
-4.004522	p t d
-1.106898	p t e
-3.825232	p t f
-4.019319	p t g
-2.023484	p t h
-0.4532691	p t i	-0.4529063
-4.740556	p t j
-4.392396	p t k
-2.621616	p t l
-3.686029	p t m
-3.666186	p t n
-1.368257	p t o
-3.672004	p t p
-4.669751	p t q
-2.936929	p t r
-1.391372	p t s
-3.591433	p t t
-1.521894	p t u
-3.804868	p t v
-3.610378	p t w
-4.218611	p t x
-1.416201	p t y	-0.1062826
-4.532792	p t z
-2.10766	q t !
-1.812273	q t '
-1.21015	q t ,
-1.03207	q t .
-0.3500607	q t <sp>
-1.766366	q t ?
-2.017875	q t a
-2.887527	q t b
-2.122766	q t c
-2.659438	q t d
-1.216466	q t e
-1.768092	q t f
-2.736614	q t g
-1.375268	q t h
-1.718422	q t i
-3.514756	q t j
-3.017559	q t k
-2.06371	q t l
-2.269486	q t m
-2.573522	q t n
-1.745526	q t o
-1.714749	q t p
-2.70919	q t q
-1.541399	q t r
-1.696575	q t s
-1.878371	q t t
-2.238291	q t u
-1.957232	q t v
-2.246115	q t w
-2.780047	q t x
-1.276855	q t y
-3.129769	q t z
-0.907634	r t a	-0.2130895
-1.154452	r t e	-0.3691086
-1.027426	r t h	0.07290759
-0.8698915	r t i	-0.1479029
-2.490581	s t !
-3.187006	s t '
-1.927114	s t ,
-1.424096	s t .
-0.4433436	s t <sp>	-0.001236858
-2.065791	s t ?
-0.826645	s t a	-0.2089167
-3.751123	s t b
-3.354252	s t c
-3.565103	s t d
-0.9964165	s t e	0
-3.695419	s t f
-3.812879	s t g
-3.177789	s t h	-0.1591461
-0.9063042	s t i	-0.141565
-4.877975	s t j
-4.824601	s t k
-2.175699	s t l	-0.3297248
-2.277702	s t m
-3.224153	s t n
-1.223366	s t o	-0.213521
-3.421766	s t p
-5.321275	s t q
-1.156124	s t r	-0.0043799
-1.750424	s t s
-4.227726	s t t
-1.486628	s t u	-0.1562753
-4.39421	s t v
-3.565171	s t w
-5.019676	s t x
-2.068101	s t y
-5.22672	s t z
-3.118421	t t !
-3.033313	t t '
-2.651166	t t ,
-2.319094	t t .
-1.959442	t t <sp>
-2.982495	t t ?
-1.313441	t t a
-4.282088	t t b
-3.749509	t t c
-4.180085	t t d
-0.3798652	t t e
-3.836453	t t f
-4.309164	t t g
-2.715631	t t h
-0.759989	t t i
-4.966484	t t j
-4.223189	t t k
-0.7798827	t t l	-99
-3.688016	t t m
-3.851298	t t n
-1.379548	t t o
-2.147619	t t p
-5.581756	t t q
-1.553972	t t r	-0.1689975
-2.675168	t t s
-3.418603	t t t
-3.158512	t t u
-4.371621	t t v
-3.993681	t t w
-4.656012	t t x
-1.041469	t t y
-4.605234	t t z
-2.376285	u t !
-3.910749	u t '
-1.75654	u t ,
-1.354326	u t .
-0.1601287	u t <sp>	-0.1284261
-1.858443	u t ?
-2.337914	u t a
-3.541961	u t b
-2.485603	u t c
-2.849203	u t d
-1.216917	u t e	-0.1001902
-2.931978	u t f
-3.437201	u t g
-1.596254	u t h
-1.302038	u t i	-0.08836877
-4.735825	u t j
-4.782767	u t k
-2.463356	u t l
-3.685863	u t m
-4.026443	u t n
-1.871098	u t o	-0.2591841
-2.310561	u t p
-5.670451	u t q
-2.586227	u t r	-0.2634693
-1.723888	u t s
-1.732764	u t t
-1.818039	u t u
-4.544893	u t v
-3.451055	u t w
-4.958879	u t x
-2.443804	u t y
-3.844099	u t z
-2.262531	v t !
-2.119726	v t '
-1.533231	v t ,
-0.6934983	v t .
-0.4886175	v t <sp>
-1.677346	v t ?
-1.099751	v t a
-2.664646	v t b
-2.034511	v t c
-2.567362	v t d
-1.488787	v t e
-2.349063	v t f
-2.70381	v t g
-1.574098	v t h
-1.428812	v t i
-3.522563	v t j
-2.078761	v t k
-2.084374	v t l
-1.979106	v t m
-2.450848	v t n
-1.447296	v t o
-2.061769	v t p
-3.986589	v t q
-1.603046	v t r
-1.293728	v t s
-1.70809	v t t
-1.90874	v t u
-2.132671	v t v
-2.403593	v t w
-2.286693	v t x
-1.879928	v t y
-3.540797	v t z
-2.17841	w t !
-2.536325	w t '
-1.98248	w t ,
-1.649213	w t .
-1.050487	w t <sp>
-2.161382	w t ?
-2.03014	w t a
-2.765131	w t b
-2.23734	w t c
-2.770187	w t d
-1.847409	w t e
-1.406019	w t f
-2.777275	w t g
-0.2695435	w t h
-1.559191	w t i
-3.657081	w t j
-3.012838	w t k
-2.581463	w t l
-2.679988	w t m
-2.775928	w t n
-0.7650115	w t o
-2.556151	w t p
-4.084589	w t q
-2.139151	w t r
-1.905202	w t s
-2.532422	w t t
-2.550524	w t u
-2.643502	w t v
-2.414036	w t w
-3.206311	w t x
-2.085252	w t y
-3.713326	w t z
-2.330542	x t !
-3.565152	x t '
-1.66399	x t ,
-1.192573	x t .
-0.2595931	x t <sp>
-1.586224	x t ?
-2.806932	x t a
-2.112108	x t b
-3.398607	x t c
-3.727475	x t d
-0.9670183	x t e
-3.162585	x t f
-4.032028	x t g
-2.283805	x t h
-2.035788	x t i
-4.146228	x t j
-4.530488	x t k
-3.567382	x t l
-3.544389	x t m
-3.860606	x t n
-2.607511	x t o
-3.494655	x t p
-5.203612	x t q
-0.7865993	x t r
-1.896338	x t s
-3.519842	x t t
-1.785998	x t u
-3.654942	x t v
-3.727447	x t w
-4.374449	x t x
-2.473572	x t y
-4.48491	x t z
-4.276481	y t !
-4.244711	y t '
-3.779925	y t ,
-3.433987	y t .
-2.735227	y t <sp>
-3.897442	y t ?
-3.020061	y t a
-4.294587	y t b
-4.05771	y t c
-4.097163	y t d
-1.658036	y t e
-4.301564	y t f
-4.36976	y t g
-0.0280204	y t h	-1.355044
-1.499241	y t i
-4.746585	y t j
-4.896611	y t k
-3.97407	y t l
-3.914871	y t m
-4.140949	y t n
-2.544089	y t o
-4.255639	y t p
-5.600582	y t q
-3.183032	y t r
-3.861851	y t s
-3.837369	y t t
-3.818989	y t u
-4.186636	y t v
-4.019509	y t w
-4.908805	y t x
-3.403469	y t y
-4.342406	y t z
-0.8542417	<s> u h
-0.5421114	<sp> u p	0
-0.3994078	<sp> u s	-0.2547152
-1.012951	a u l	-0.4936453
-0.3694067	a u s	0
-1.916023	b u d	-0.2098494
-1.383087	b u i	-99
-1.130856	b u s	-0.2936852
-0.1384471	b u t	-0.5247063
-1.332643	b u y	-0.3230447
-0.7012604	c u l	-99
-1.023179	c u m	-0.4134034
-0.5953445	c u r	-0.1820834
-0.3041477	f u l	-0.1355481
-0.5944723	f u n	-0.0576512
-1.117176	f u s	-0.1602907
-0.5714047	g u e	-0.3931927
-0.9459365	g u r	-0.5370861
-0.652679	g u y	0.1346364
-0.04365131	j u s	-2.821008
-0.9722565	l u d	-0.3873455
-0.7369596	l u e	0.09107552
-2.320133	l u f	-0.362803
-1.02222	l u s	-0.1755498
-0.7432305	l u t	-0.3109741
-0.3398933	m u c	-2.149208
-0.4969689	m u s	-0.3272793
-1.731822	m u t	0
-1.185442	n u a	-0.1461645
-1.399101	o u '	-0.001823745
-0.4460214	o u <sp>	2.440393e-05
-1.302772	o u g	-99
-0.9057422	o u l	-1.701847
-1.310599	o u n	-0.6876087
-2.047313	o u p	0
-0.7976778	o u r	-0.3902512
-1.498616	o u s	-0.06440031
-0.922347	o u t	-0.09386484
-1.265993	p u s	-0.5989141
-0.3222695	p u t	0.09326431
-0.35937	q u e	-0.01064747
-0.4050921	q u i	-0.1279669
-1.741186	r u d	0.01662194
-1.022797	r u l	-0.08567689
-0.8271447	r u s	-0.1343757
-1.296459	r u t	0
-1.315783	s u a	-0.897777
-1.336379	s u l	-1.117828
-1.206328	s u m	-0.1572227
-0.8644078	s u p	-0.6851831
-0.5321071	s u r	-0.5601014
-0.6879311	t u a	-0.3114763
-1.1074	t u d	-0.1267101
-0.3668414	t u r	-0.2920286
-1.674676	t u t	-0.1500379
-0.2323543	<s> v e	-1.057312
-0.7426835	<sp> v a	-0.143101
-0.3382847	<sp> v e	-0.8238621
-0.6107202	<sp> v i	-0.08232797
-1.048354	<sp> v o	-0.04082588
-3.246227	<sp> v t	0
-0.07085428	a v e	-0.6379755
-2.235491	a v y	0.008331354
-0.4446775	d v a	-99
-0.7425557	d v e	-0.4247622
-0.06202233	e v e	-0.1905419
-1.070181	e v i	0.09437656
-0.09916081	i v e	0.218407
-0.0851524	o v e	0.006448021
-0.8206595	o v i	-0.1415558
-0.4048601	r v i	-0.2799882
-0.4940293	<s> w e	-0.07864341
-0.2783117	<s> w h	-99
-4.915923	<sp> w !
-4.770713	<sp> w '
-4.852785	<sp> w ,
-4.022835	<sp> w .
-3.672364	<sp> w <sp>
-4.827437	<sp> w ?
-0.6891981	<sp> w a	-0.008587788
-4.356552	<sp> w b
-3.943947	<sp> w c
-4.027968	<sp> w d
-0.7359757	<sp> w e	0.009146291
-4.301344	<sp> w f
-3.943113	<sp> w g
-0.6478227	<sp> w h	0.06038788
-0.6949867	<sp> w i	-0.03632611
-5.271214	<sp> w j
-4.705499	<sp> w k
-4.126955	<sp> w l
-3.988719	<sp> w m
-4.536964	<sp> w n
-0.8005277	<sp> w o	-0.03786283
-4.232613	<sp> w p
-5.388566	<sp> w q
-1.609903	<sp> w r	0.0126826
-3.625803	<sp> w s
-3.939792	<sp> w t
-3.779051	<sp> w u
-4.839808	<sp> w v
-3.487583	<sp> w w
-4.621182	<sp> w x
-3.88184	<sp> w y
-5.32263	<sp> w z
-0.004694842	l w a	0
-1.895737	o w !
-2.167954	o w '
-1.26436	o w ,
-0.9789653	o w .
-0.2772769	o w <sp>	-0.01406706
-1.559959	o w ?
-2.176376	o w a	-0.4100974
-3.343409	o w b
-3.60889	o w c
-2.483457	o w d
-1.183868	o w e
-3.720733	o w f
-4.187262	o w g
-2.890874	o w h
-1.680032	o w i
-4.904426	o w j
-4.664189	o w k
-1.943463	o w l	-0.06275591
-3.624122	o w m
-0.9587021	o w n
-3.424875	o w o
-4.315378	o w p
-5.497132	o w q
-3.691855	o w r
-1.370678	o w s
-2.807487	o w t
-3.788436	o w u
-4.69156	o w v
-4.004897	o w w
-5.383676	o w x
-3.769132	o w y
-4.463591	o w z
-0.2281237	r w a	-1.073916
-0.1744268	s w e	-0.03350303
-3.202375	t w !
-4.361268	t w '
-2.030747	t w ,
-2.155917	t w .
-2.219339	t w <sp>
-2.926902	t w ?
-1.105109	t w a
-4.215693	t w b
-3.803678	t w c
-3.808964	t w d
-0.7471642	t w e	-0.6020481
-4.333838	t w f
-3.89984	t w g
-3.243763	t w h
-1.099017	t w i
-5.280385	t w j
-4.520195	t w k
-4.183682	t w l
-4.001015	t w m
-3.921486	t w n
-0.196908	t w o
-4.197182	t w p
-5.182544	t w q
-3.013982	t w r
-3.7715	t w s
-3.728967	t w t
-3.936295	t w u
-5.063759	t w v
-3.97022	t w w
-4.625711	t w x
-3.867675	t w y
-4.949172	t w z
-0.2151278	y w a	0
-0.8124452	e x a	0
-1.206997	e x i	-0.1868892
-0.55414	e x p	-0.008134799
-0.5705309	e x t	0
-2.274388	<s> y a
-0.6167665	<s> y e	-0.1830955
-0.1295442	<s> y o
-2.15475	<s> y u
-4.601135	<sp> y !
-3.142158	<sp> y '
-4.22031	<sp> y ,
-4.14423	<sp> y .
-3.16641	<sp> y <sp>
-4.305024	<sp> y ?
-2.361373	<sp> y a
-4.888643	<sp> y b
-4.702752	<sp> y c
-4.710876	<sp> y d
-1.135647	<sp> y e	0.02195643
-5.071443	<sp> y f
-4.63356	<sp> y g
-4.61438	<sp> y h
-3.175515	<sp> y i
-5.420689	<sp> y j
-5.180796	<sp> y k
-4.675882	<sp> y l
-4.385355	<sp> y m
-4.834387	<sp> y n
-0.03689609	<sp> y o	-1.020977
-4.536124	<sp> y p
-5.614459	<sp> y q
-3.96784	<sp> y r
-4.445178	<sp> y s
-4.30914	<sp> y t
-2.942748	<sp> y u
-4.356804	<sp> y v
-4.95349	<sp> y w
-5.625473	<sp> y x
-4.66184	<sp> y y
-5.404156	<sp> y z
-1.705085	a y !
-2.277509	a y '
-1.157833	a y ,
-0.8070677	a y .
-0.4002591	a y <sp>	-0.0250859
-1.337773	a y ?
-2.728209	a y a
-1.099044	a y b
-3.305346	a y c
-3.26007	a y d
-1.558386	a y e
-3.611971	a y f
-3.385483	a y g
-3.696026	a y h
-1.412504	a y i
-4.92607	a y j
-4.404023	a y k
-2.542295	a y l
-2.373813	a y m
-3.088585	a y n
-2.183974	a y o
-3.187857	a y p
-5.252342	a y q
-3.547025	a y r
-0.8552283	a y s	-0.2926164
-3.199996	a y t
-3.944164	a y u
-4.634618	a y v
-3.984587	a y w
-5.277909	a y x
-4.055434	a y y
-4.367212	a y z
-0.0860825	b y <sp>	-0.1086728
-0.1896494	d y <sp>	0
-0.1709533	e y <sp>	-0.01694204
-0.1975919	f y <sp>	0
-0.1044487	h y <sp>	-0.04287483
-1.446988	h y s	-1.25522
-1.150162	l y ,	0.1108982
-0.9182814	l y .	-0.004888972
-0.127354	l y <sp>	0.02094627
-0.03932808	m y <sp>	-0.02370222
-0.2837101	n y <sp>	-0.02121937
-0.7774917	n y t	-99
-1.125913	n y w	-0.2278641
-0.5134178	o y <sp>	0
-1.462038	o y m	-99
-0.199235	p y <sp>	0
-1.255505	r y ,	0.1701681
-0.2446204	r y <sp>	-0.008889539
-1.794587	r y b	-1.929168
-2.241744	r y p	-1.512195
-1.112297	r y t	-99
-0.271003	t y <sp>	0
-0.905926	t y p	-0.02197813
-0.3625005	u y <sp>	0
-0.2053645	v y <sp>	0

\4-grams:
-0.006741492	o n ' t	-0.1114313
-0.0002277213	s n ' t	0.07096927
-1.422715	<sp> o ' r	0.298936
-0.01363463	i t ' s	-0.1111632
-0.2122611	o u ' r	-99
-2.788656e-06	c h , <sp>	-0.00745159
-1.795255e-06	n o , <sp>	-0.05342775
-1.400595e-06	e s , <sp>	-0.01836262
-1.742954e-06	l y , <sp>	0.002580463
-1.997818e-06	r y , <sp>	-0.01396822
-4.872562	e d . '
-4.301399	e d . ,
-0.1352003	e d . </s>
-0.5734056	e d . <sp>
-4.829576	e d . a
-4.919512	e d . b
-4.265847	e d . c
-4.500313	e d . d
-4.830136	e d . e
-5.057072	e d . f
-5.056147	e d . g
-4.790944	e d . h
-4.627461	e d . i
-4.995923	e d . j
-5.77774	e d . k
-4.87259	e d . l
-4.952337	e d . m
-4.679226	e d . n
-4.572121	e d . o
-4.650928	e d . p
-5.859749	e d . q
-4.877668	e d . r
-4.611185	e d . s
-4.608896	e d . t
-5.115602	e d . u
-5.337075	e d . v
-4.845674	e d . w
-5.081992	e d . x
-5.257696	e d . y
-5.912969	e d . z
-4.580473	o d . '
-4.111427	o d . ,
